{"learner":{"attributes":{"best_iteration":"499","best_ntree_limit":"500"},"feature_names":["month","year","temp","humi","monthly_rainfall_mm","region_encoded","season_encoded"],"feature_types":["int","int","int","int","float","int","int"],"gradient_booster":{"model":{"gbtree_model_param":{"num_parallel_tree":"1","num_trees":"500","size_leaf_vector":"0"},"tree_info":[0,0,0,0,0,0,0,0,0,0,0,0,0,0,0,0,0,0,0,0,0,0,0,0,0,0,0,0,0,0,0,0,0,0,0,0,0,0,0,0,0,0,0,0,0,0,0,0,0,0,0,0,0,0,0,0,0,0,0,0,0,0,0,0,0,0,0,0,0,0,0,0,0,0,0,0,0,0,0,0,0,0,0,0,0,0,0,0,0,0,0,0,0,0,0,0,0,0,0,0,0,0,0,0,0,0,0,0,0,0,0,0,0,0,0,0,0,0,0,0,0,0,0,0,0,0,0,0,0,0,0,0,0,0,0,0,0,0,0,0,0,0,0,0,0,0,0,0,0,0,0,0,0,0,0,0,0,0,0,0,0,0,0,0,0,0,0,0,0,0,0,0,0,0,0,0,0,0,0,0,0,0,0,0,0,0,0,0,0,0,0,0,0,0,0,0,0,0,0,0,0,0,0,0,0,0,0,0,0,0,0,0,0,0,0,0,0,0,0,0,0,0,0,0,0,0,0,0,0,0,0,0,0,0,0,0,0,0,0,0,0,0,0,0,0,0,0,0,0,0,0,0,0,0,0,0,0,0,0,0,0,0,0,0,0,0,0,0,0,0,0,0,0,0,0,0,0,0,0,0,0,0,0,0,0,0,0,0,0,0,0,0,0,0,0,0,0,0,0,0,0,0,0,0,0,0,0,0,0,0,0,0,0,0,0,0,0,0,0,0,0,0,0,0,0,0,0,0,0,0,0,0,0,0,0,0,0,0,0,0,0,0,0,0,0,0,0,0,0,0,0,0,0,0,0,0,0,0,0,0,0,0,0,0,0,0,0,0,0,0,0,0,0,0,0,0,0,0,0,0,0,0,0,0,0,0,0,0,0,0,0,0,0,0,0,0,0,0,0,0,0,0,0,0,0,0,0,0,0,0,0,0,0,0,0,0,0,0,0,0,0,0,0,0,0,0,0,0,0,0,0,0,0,0,0,0,0,0,0,0,0,0,0,0,0,0,0,0,0,0,0,0,0,0,0,0,0,0,0,0,0,0,0,0,0,0,0,0,0,0,0,0,0,0,0,0,0,0,0,0,0,0,0,0,0,0,0,0,0,0,0,0,0,0,0,0,0,0,0,0],"trees":[{"base_weights":[3.5134497E3,2.5633113E3,4.757896E3,3.8611724E3,1.9890072E3,6.8641025E3,2.2020146E3,9.600526E2,2.3267212E3,4.503327E3,1.0758107E4,2.0891914E3,3.7995833E3,2.7348235E3,7.05945E3,1.3022728E4,1.840875E3],"categories":[],"categories_nodes":[],"categories_segments":[],"categories_sizes":[],"default_left":[1,1,1,0,1,1,0,0,1,1,1,0,0,0,0,0,0],"id":0,"left_children":[1,3,5,-1,7,9,-1,-1,11,13,15,-1,-1,-1,-1,-1,-1],"loss_changes":[1.8762906E8,6.536608E7,3.7247654E8,0E0,2.2090688E7,3.1007475E8,0E0,0E0,1.0254048E7,9.822694E7,2.5874483E8,0E0,0E0,0E0,0E0,0E0,0E0],"parents":[2147483647,0,0,1,1,2,2,4,4,5,5,8,8,9,9,10,10],"right_children":[2,4,6,-1,8,10,-1,-1,12,14,16,-1,-1,-1,-1,-1,-1],"split_conditions":[2.0185E3,2.25E1,2.0205E3,1.9305862E2,2.0145E3,4.4E1,1.1010073E2,4.8002632E1,3.1E1,1.05E1,1.05E1,1.0445957E2,1.8997917E2,1.3674118E2,3.529725E2,6.511364E2,9.2043755E1],"split_indices":[1,2,1,0,1,3,0,0,2,0,0,0,0,0,0,0,0],"split_type":[0,0,0,0,0,0,0,0,0,0,0,0,0,0,0,0,0],"sum_hessian":[1.68E2,9.7E1,7.1E1,2.8E1,6.9E1,3.8E1,3.3E1,1.8E1,5.1E1,2.5E1,1.3E1,4.6E1,5E0,1.6E1,9E0,1E1,3E0],"tree_param":{"num_deleted":"0","num_feature":"7","num_nodes":"17","size_leaf_vector":"0"}},{"base_weights":[3.3488926E3,2.4406099E3,4.538654E3,3.674771E3,1.8944489E3,6.55251E3,2.0951523E3,9.145764E2,2.2160474E3,4.2969956E3,1.0273286E4,1.9869545E3,3.6412673E3,2.606126E3,6.741775E3,1.2430785E4,1.7718422E3],"categories":[],"categories_nodes":[],"categories_segments":[],"categories_sizes":[],"default_left":[1,1,1,0,1,1,0,0,1,1,1,0,0,0,0,0,0],"id":1,"left_children":[1,3,5,-1,7,9,-1,-1,11,13,15,-1,-1,-1,-1,-1,-1],"loss_changes":[1.7155098E8,5.9095296E7,3.4057344E8,0E0,2.0032064E7,2.8315405E8,0E0,0E0,9.743376E6,8.990893E7,2.3476058E8,0E0,0E0,0E0,0E0,0E0,0E0],"parents":[2147483647,0,0,1,1,2,2,4,4,5,5,8,8,9,9,10,10],"right_children":[2,4,6,-1,8,10,-1,-1,12,14,16,-1,-1,-1,-1,-1,-1],"split_conditions":[2.0185E3,2.25E1,2.0205E3,1.8373856E2,2.0145E3,4.4E1,1.0475762E2,4.572882E1,3.1E1,1.05E1,1.05E1,9.9347725E1,1.8206337E2,1.303063E2,3.3708875E2,6.2153925E2,8.859211E1],"split_indices":[1,2,1,0,1,3,0,0,2,0,0,0,0,0,0,0,0],"split_type":[0,0,0,0,0,0,0,0,0,0,0,0,0,0,0,0,0],"sum_hessian":[1.68E2,9.7E1,7.1E1,2.8E1,6.9E1,3.8E1,3.3E1,1.8E1,5.1E1,2.5E1,1.3E1,4.6E1,5E0,1.6E1,9E0,1E1,3E0],"tree_param":{"num_deleted":"0","num_feature":"7","num_nodes":"17","size_leaf_vector":"0"}},{"base_weights":[3.1920583E3,2.3237925E3,4.3295303E3,3.4973682E3,1.8043998E3,6.2550776E3,1.9934757E3,8.712544E2,2.1106567E3,4.1001226E3,9.810346E3,1.203868E3,2.0881023E3,1.8897205E3,3.4895479E3,2.4834849E3,6.4383945E3,1.1865749E4,1.7053982E3],"categories":[],"categories_nodes":[],"categories_segments":[],"categories_sizes":[],"default_left":[1,1,1,0,1,1,1,0,1,1,1,0,0,0,0,0,0,0,0],"id":2,"left_children":[1,3,5,-1,7,9,11,-1,13,15,17,-1,-1,-1,-1,-1,-1,-1,-1],"loss_changes":[1.5684826E8,5.342493E7,3.113998E8,0E0,1.8165856E7,2.5857267E8,2.6608E4,0E0,9.247376E6,8.229395E7,2.1298931E8,0E0,0E0,0E0,0E0,0E0,0E0,0E0,0E0],"parents":[2147483647,0,0,1,1,2,2,4,4,5,5,6,6,8,8,9,9,10,10],"right_children":[2,4,6,-1,8,10,12,-1,14,16,18,-1,-1,-1,-1,-1,-1,-1,-1],"split_conditions":[2.0185E3,2.25E1,2.0205E3,1.7486841E2,2.0145E3,4.4E1,3.85E1,4.356272E1,3.1E1,1.05E1,1.05E1,6.01934E1,1.0440511E2,9.448602E1,1.744774E2,1.2417425E2,3.2191974E2,5.932875E2,8.526991E1],"split_indices":[1,2,1,0,1,3,3,0,2,0,0,0,0,0,0,0,0,0,0],"split_type":[0,0,0,0,0,0,0,0,0,0,0,0,0,0,0,0,0,0,0],"sum_hessian":[1.68E2,9.7E1,7.1E1,2.8E1,6.9E1,3.8E1,3.3E1,1.8E1,5.1E1,2.5E1,1.3E1,5E0,2.8E1,4.6E1,5E0,1.6E1,9E0,1E1,3E0],"tree_param":{"num_deleted":"0","num_feature":"7","num_nodes":"19","size_leaf_vector":"0"}},{"base_weights":[3.042968E3,2.2125762E3,4.1309604E3,3.3285298E3,1.7186444E3,5.971161E3,1.8986431E3,8.2998444E2,2.0102963E3,3.912274E3,9.368297E3,3.5147055E2,8.6560547E2,1.7972448E3,3.3441501E3,2.3666147E3,6.148667E3,1.1326397E4,1.6414457E3],"categories":[],"categories_nodes":[],"categories_segments":[],"categories_sizes":[],"default_left":[1,1,1,0,1,1,0,1,1,1,1,0,0,0,0,0,0,0,0],"id":3,"left_children":[1,3,5,-1,7,9,-1,11,13,15,17,-1,-1,-1,-1,-1,-1,-1,-1],"loss_changes":[1.4354458E8,4.829757E7,2.8443264E8,0E0,1.6474032E7,2.361271E8,0E0,1.9623E4,8.767072E6,7.532269E7,1.9322765E8,0E0,0E0,0E0,0E0,0E0,0E0,0E0,0E0],"parents":[2147483647,0,0,1,1,2,2,4,4,5,5,7,7,8,8,9,9,10,10],"right_children":[2,4,6,-1,8,10,-1,12,14,16,18,-1,-1,-1,-1,-1,-1,-1,-1],"split_conditions":[2.0185E3,2.25E1,2.0205E3,1.664265E2,2.0145E3,4.4E1,9.493215E1,3.95E1,3.1E1,1.05E1,1.05E1,1.7573528E1,4.3280273E1,8.9862236E1,1.672075E2,1.1833074E2,3.0743335E2,5.663199E2,8.207229E1],"split_indices":[1,2,1,0,1,3,0,3,2,0,0,0,0,0,0,0,0,0,0],"split_type":[0,0,0,0,0,0,0,0,0,0,0,0,0,0,0,0,0,0,0],"sum_hessian":[1.68E2,9.7E1,7.1E1,2.8E1,6.9E1,3.8E1,3.3E1,1.8E1,5.1E1,2.5E1,1.3E1,2E0,1.6E1,4.6E1,5E0,1.6E1,9E0,1E1,3E0],"tree_param":{"num_deleted":"0","num_feature":"7","num_nodes":"19","size_leaf_vector":"0"}},{"base_weights":[2.9006033E3,2.10689E3,3.9406497E3,3.167842E3,1.637254E3,5.7001455E3,1.806503E3,7.9168805E2,1.9147251E3,3.733036E3,8.946195E3,1.0745968E3,1.8956387E3,3.3975488E2,8.248711E2,1.7092946E3,3.2048103E3,2.2552446E3,5.871977E3,1.0811561E4,1.5798915E3],"categories":[],"categories_nodes":[],"categories_segments":[],"categories_sizes":[],"default_left":[1,1,1,0,1,1,1,1,1,1,1,0,0,0,0,0,0,0,0,0,0],"id":4,"left_children":[1,3,5,-1,7,9,11,13,15,17,19,-1,-1,-1,-1,-1,-1,-1,-1,-1,-1],"loss_changes":[1.3120678E8,4.364304E7,2.6006438E8,0E0,1.4907536E7,2.1563162E8,1.8108E5,4.679E3,8.303232E6,6.894086E7,1.7529075E8,0E0,0E0,0E0,0E0,0E0,0E0,0E0,0E0,0E0,0E0],"parents":[2147483647,0,0,1,1,2,2,4,4,5,5,6,6,7,7,8,8,9,9,10,10],"right_children":[2,4,6,-1,8,10,12,14,16,18,20,-1,-1,-1,-1,-1,-1,-1,-1,-1,-1],"split_conditions":[2.0185E3,2.25E1,2.0205E3,1.583921E2,2.0145E3,4.4E1,3.85E1,3.95E1,3.1E1,1.05E1,1.05E1,5.372984E1,9.478194E1,1.6987745E1,4.1243557E1,8.546473E1,1.6024052E2,1.1276223E2,2.9359885E2,5.4057806E2,7.8994576E1],"split_indices":[1,2,1,0,1,3,3,3,2,0,0,0,0,0,0,0,0,0,0,0,0],"split_type":[0,0,0,0,0,0,0,0,0,0,0,0,0,0,0,0,0,0,0,0,0],"sum_hessian":[1.68E2,9.7E1,7.1E1,2.8E1,6.9E1,3.8E1,3.3E1,1.8E1,5.1E1,2.5E1,1.3E1,5E0,2.8E1,2E0,1.6E1,4.6E1,5E0,1.6E1,9E0,1E1,3E0],"tree_param":{"num_deleted":"0","num_feature":"7","num_nodes":"21","size_leaf_vector":"0"}},{"base_weights":[2.7652583E3,2.006263E3,3.759929E3,3.0149119E3,1.5597333E3,5.441444E3,1.7205459E3,7.5516846E2,1.823714E3,3.5620134E3,8.543141E3,1.0298219E3,1.8041251E3,1.6256482E3,3.0712766E3,2.1491157E3,5.6077383E3,1.0320126E4,1.5206455E3],"categories":[],"categories_nodes":[],"categories_segments":[],"categories_sizes":[],"default_left":[1,1,1,0,1,1,1,0,1,1,1,0,0,0,0,0,0,0,0],"id":5,"left_children":[1,3,5,-1,7,9,11,-1,13,15,17,-1,-1,-1,-1,-1,-1,-1,-1],"loss_changes":[1.2004314E8,3.9435936E7,2.3754406E8,0E0,1.3490064E7,1.9691674E8,1.04904E5,0E0,7.856352E6,6.309869E7,1.5901094E8,0E0,0E0,0E0,0E0,0E0,0E0,0E0,0E0],"parents":[2147483647,0,0,1,1,2,2,4,4,5,5,6,6,8,8,9,9,10,10],"right_children":[2,4,6,-1,8,10,12,-1,14,16,18,-1,-1,-1,-1,-1,-1,-1,-1],"split_conditions":[2.0185E3,2.25E1,2.0205E3,1.5074559E2,2.0145E3,4.4E1,3.85E1,3.7758423E1,3.1E1,1.05E1,1.05E1,5.1491096E1,9.020626E1,8.128241E1,1.5356383E2,1.0745579E2,2.8038693E2,5.160063E2,7.603228E1],"split_indices":[1,2,1,0,1,3,3,0,2,0,0,0,0,0,0,0,0,0,0],"split_type":[0,0,0,0,0,0,0,0,0,0,0,0,0,0,0,0,0,0,0],"sum_hessian":[1.68E2,9.7E1,7.1E1,2.8E1,6.9E1,3.8E1,3.3E1,1.8E1,5.1E1,2.5E1,1.3E1,5E0,2.8E1,4.6E1,5E0,1.6E1,9E0,1E1,3E0],"tree_param":{"num_deleted":"0","num_feature":"7","num_nodes":"19","size_leaf_vector":"0"}},{"base_weights":[2.636137E3,1.9102698E3,3.58751E3,2.8693645E3,1.4856409E3,5.194497E3,1.6386862E3,7.1939734E2,1.7370446E3,3.3988296E3,8.1582725E3,9.8691266E2,1.7170294E3,3.0325742E2,7.505163E2,1.5460952E3,2.9433066E3,2.0479807E3,5.35539E3,9.851029E3,1.4636213E3],"categories":[],"categories_nodes":[],"categories_segments":[],"categories_sizes":[],"default_left":[1,1,1,0,1,1,1,1,1,1,1,0,0,0,0,0,0,0,0,0,0],"id":6,"left_children":[1,3,5,-1,7,9,11,13,15,17,19,-1,-1,-1,-1,-1,-1,-1,-1,-1,-1],"loss_changes":[1.0985318E8,3.5648576E7,2.1697267E8,0E0,1.2234928E7,1.7982765E8,4.1552E4,1.8448E4,7.426784E6,5.775072E7,1.4423571E8,0E0,0E0,0E0,0E0,0E0,0E0,0E0,0E0,0E0,0E0],"parents":[2147483647,0,0,1,1,2,2,4,4,5,5,6,6,7,7,8,8,9,9,10,10],"right_children":[2,4,6,-1,8,10,12,14,16,18,20,-1,-1,-1,-1,-1,-1,-1,-1,-1,-1],"split_conditions":[2.0185E3,2.25E1,2.0205E3,1.4346823E2,2.0145E3,4.4E1,3.85E1,3.95E1,3.1E1,1.05E1,1.05E1,4.9345634E1,8.585147E1,1.5162871E1,3.7525814E1,7.730476E1,1.4716533E2,1.0239904E2,2.677695E2,4.9255148E2,7.318107E1],"split_indices":[1,2,1,0,1,3,3,3,2,0,0,0,0,0,0,0,0,0,0,0,0],"split_type":[0,0,0,0,0,0,0,0,0,0,0,0,0,0,0,0,0,0,0,0,0],"sum_hessian":[1.68E2,9.7E1,7.1E1,2.8E1,6.9E1,3.8E1,3.3E1,1.8E1,5.1E1,2.5E1,1.3E1,5E0,2.8E1,2E0,1.6E1,4.6E1,5E0,1.6E1,9E0,1E1,3E0],"tree_param":{"num_deleted":"0","num_feature":"7","num_nodes":"21","size_leaf_vector":"0"}},{"base_weights":[2.513157E3,1.8190483E3,3.4230107E3,2.7308433E3,1.4153182E3,4.9587695E3,1.5607283E3,1.2638195E3,2.820669E3,3.2431255E3,7.7907686E3,1.0618243E3,2.1589023E3,1.9516051E3,5.1143975E3,9.403256E3,1.4087355E3],"categories":[],"categories_nodes":[],"categories_segments":[],"categories_sizes":[],"default_left":[1,1,1,0,1,1,0,1,0,1,1,0,0,0,0,0,0],"id":7,"left_children":[1,3,5,-1,7,9,-1,11,-1,13,15,-1,-1,-1,-1,-1,-1],"loss_changes":[1.0050323E8,3.2210656E7,1.9818195E8,0E0,1.1338816E7,1.6422298E8,0E0,9.459776E6,0E0,5.285517E7,1.308265E8,0E0,0E0,0E0,0E0,0E0,0E0],"parents":[2147483647,0,0,1,1,2,2,4,4,5,5,7,7,9,9,10,10],"right_children":[2,4,6,-1,8,10,-1,12,-1,14,16,-1,-1,-1,-1,-1,-1],"split_conditions":[2.0185E3,2.25E1,2.0205E3,1.3654216E2,3.1E1,4.4E1,7.8036415E1,2.0175E3,1.4103345E2,1.05E1,1.05E1,5.3091217E1,1.0794512E2,9.758025E1,2.5571988E2,4.701628E2,7.0436775E1],"split_indices":[1,2,1,0,2,3,0,1,0,0,0,0,0,0,0,0,0],"split_type":[0,0,0,0,0,0,0,0,0,0,0,0,0,0,0,0,0],"sum_hessian":[1.68E2,9.7E1,7.1E1,2.8E1,6.9E1,3.8E1,3.3E1,6.4E1,5E0,2.5E1,1.3E1,5.4E1,1E1,1.6E1,9E0,1E1,3E0],"tree_param":{"num_deleted":"0","num_feature":"7","num_nodes":"17","size_leaf_vector":"0"}},{"base_weights":[2.3958455E3,1.7325715E3,3.2653591E3,2.5990095E3,1.3488677E3,4.7337515E3,1.4849869E3,6.359036E2,1.583434E3,3.0945574E3,7.4398438E3,8.807609E2,1.5587928E3,2.5775467E2,6.652297E2,1.4068026E3,2.703141E3,1.8597649E3,4.884249E3,8.975835E3,1.355908E3,1.1446426E3,1.7482933E3],"categories":[],"categories_nodes":[],"categories_segments":[],"categories_sizes":[],"default_left":[1,1,1,0,1,1,1,1,1,1,1,0,1,0,0,0,0,0,0,0,0,0,0],"id":8,"left_children":[1,3,5,-1,7,9,11,13,15,17,19,-1,21,-1,-1,-1,-1,-1,-1,-1,-1,-1,-1],"loss_changes":[9.180915E7,2.9074944E7,1.8119898E8,0E0,1.0699704E7,1.4997357E8,1.4332E5,3.92365E4,6.481544E6,4.837381E7,1.1865773E8,0E0,2.748E5,0E0,0E0,0E0,0E0,0E0,0E0,0E0,0E0,0E0,0E0],"parents":[2147483647,0,0,1,1,2,2,4,4,5,5,6,6,7,7,8,8,9,9,10,10,12,12],"right_children":[2,4,6,-1,8,10,12,14,16,18,20,-1,22,-1,-1,-1,-1,-1,-1,-1,-1,-1,-1],"split_conditions":[2.0185E3,2.25E1,2.0205E3,1.2995049E2,2.0145E3,4.4E1,3.85E1,3.95E1,3.1E1,1.05E1,1.05E1,4.4038048E1,9.5E0,1.2887733E1,3.3261486E1,7.034013E1,1.3515706E2,9.298824E1,2.4421245E2,4.4879175E2,6.77954E1,5.723213E1,8.7414665E1],"split_indices":[1,2,1,0,1,3,3,3,2,0,0,0,0,0,0,0,0,0,0,0,0,0,0],"split_type":[0,0,0,0,0,0,0,0,0,0,0,0,0,0,0,0,0,0,0,0,0,0,0],"sum_hessian":[1.68E2,9.7E1,7.1E1,2.8E1,6.9E1,3.8E1,3.3E1,1.8E1,5.1E1,2.5E1,1.3E1,5E0,2.8E1,2E0,1.6E1,4.6E1,5E0,1.6E1,9E0,1E1,3E0,1.1E1,1.7E1],"tree_param":{"num_deleted":"0","num_feature":"7","num_nodes":"23","size_leaf_vector":"0"}},{"base_weights":[2.2844797E3,1.6498368E3,3.11657E3,2.4735403E3,1.2850192E3,4.518956E3,1.4162872E3,1.1447428E3,2.5905103E3,2.952799E3,7.104751E3,8.440625E2,1.4858411E3,9.535129E2,1.9968248E3,1.7722465E3,4.664458E3,8.567843E3,1.3050614E3,1.0921798E3,1.6657351E3],"categories":[],"categories_nodes":[],"categories_segments":[],"categories_sizes":[],"default_left":[1,1,1,0,1,1,1,1,0,1,1,0,1,0,0,0,0,0,0,0,0],"id":9,"left_children":[1,3,5,-1,7,9,11,13,-1,15,17,-1,19,-1,-1,-1,-1,-1,-1,-1,-1],"loss_changes":[8.410374E7,2.6270608E7,1.6528045E8,0E0,9.853592E6,1.3696173E8,9.9072E4,8.687336E6,0E0,4.4271744E7,1.0761517E8,0E0,2.34416E5,0E0,0E0,0E0,0E0,0E0,0E0,0E0,0E0],"parents":[2147483647,0,0,1,1,2,2,4,4,5,5,6,6,7,7,9,9,10,10,12,12],"right_children":[2,4,6,-1,8,10,12,14,-1,16,18,-1,20,-1,-1,-1,-1,-1,-1,-1,-1],"split_conditions":[2.0185E3,2.25E1,2.0205E3,1.2367702E2,3.1E1,4.4E1,3.85E1,2.0175E3,1.2952551E2,1.05E1,1.05E1,4.2203125E1,9.5E0,4.7675644E1,9.984124E1,8.861233E1,2.332229E2,4.2839215E2,6.5253075E1,5.460899E1,8.328676E1],"split_indices":[1,2,1,0,2,3,3,1,0,0,0,0,0,0,0,0,0,0,0,0,0],"split_type":[0,0,0,0,0,0,0,0,0,0,0,0,0,0,0,0,0,0,0,0,0],"sum_hessian":[1.68E2,9.7E1,7.1E1,2.8E1,6.9E1,3.8E1,3.3E1,6.4E1,5E0,2.5E1,1.3E1,5E0,2.8E1,5.4E1,1E1,1.6E1,9E0,1E1,3E0,1.1E1,1.7E1],"tree_param":{"num_deleted":"0","num_feature":"7","num_nodes":"21","size_leaf_vector":"0"}},{"base_weights":[2.1785178E3,1.571434E3,2.974569E3,2.354128E3,1.2247261E3,4.313918E3,1.3507699E3,5.61371E2,1.4435533E3,2.8175374E3,6.784774E3,8.0889325E2,1.416304E3,2.173791E2,5.890536E2,1.2801987E3,2.4825723E3,1.6888467E3,4.4545576E3,8.178395E3,1.2561216E3,1.0421216E3,1.5870753E3],"categories":[],"categories_nodes":[],"categories_segments":[],"categories_sizes":[],"default_left":[1,1,1,0,1,1,1,1,1,1,1,0,1,0,0,0,0,0,0,0,0,0,0],"id":10,"left_children":[1,3,5,-1,7,9,11,13,15,17,19,-1,21,-1,-1,-1,-1,-1,-1,-1,-1,-1,-1],"loss_changes":[7.699827E7,2.371072E7,1.5076096E8,0E0,9.35084E6,1.2507994E8,6.1748E4,5.28815E4,5.647704E6,4.0516864E7,9.759475E7,0E0,1.99164E5,0E0,0E0,0E0,0E0,0E0,0E0,0E0,0E0,0E0,0E0],"parents":[2147483647,0,0,1,1,2,2,4,4,5,5,6,6,7,7,8,8,9,9,10,10,12,12],"right_children":[2,4,6,-1,8,10,12,14,16,18,20,-1,22,-1,-1,-1,-1,-1,-1,-1,-1,-1,-1],"split_conditions":[2.0185E3,2.25E1,2.0205E3,1.177064E2,2.0145E3,4.4E1,3.85E1,3.95E1,3.1E1,1.05E1,1.05E1,4.0444664E1,9.5E0,1.0868956E1,2.945268E1,6.400994E1,1.2412862E2,8.444234E1,2.2272789E2,4.0891977E2,6.280608E1,5.210608E1,7.935377E1],"split_indices":[1,2,1,0,1,3,3,3,2,0,0,0,0,0,0,0,0,0,0,0,0,0,0],"split_type":[0,0,0,0,0,0,0,0,0,0,0,0,0,0,0,0,0,0,0,0,0,0,0],"sum_hessian":[1.68E2,9.7E1,7.1E1,2.8E1,6.9E1,3.8E1,3.3E1,1.8E1,5.1E1,2.5E1,1.3E1,5E0,2.8E1,2E0,1.6E1,4.6E1,5E0,1.6E1,9E0,1E1,3E0,1.1E1,1.7E1],"tree_param":{"num_deleted":"0","num_feature":"7","num_nodes":"23","size_leaf_vector":"0"}},{"base_weights":[2.077266E3,1.3606587E3,2.69117E3,2.262215E3,1.0224363E3,3.4807637E3,1.2882874E3,2.5739316E3,1.5606008E3,8.558434E2,2.3791318E3,2.4532249E3,5.4067236E3,7.751894E2,1.3500219E3,6.738147E2,1.140703E3,4.2541025E3,1.7711582E3,2.0030894E3,6.4792295E3,9.943576E2,1.5121301E3],"categories":[],"categories_nodes":[],"categories_segments":[],"categories_sizes":[],"default_left":[1,1,1,1,1,1,1,0,0,1,0,1,1,0,1,0,0,0,0,0,0,0,0],"id":11,"left_children":[1,3,5,7,9,11,13,-1,-1,15,-1,17,19,-1,21,-1,-1,-1,-1,-1,-1,-1,-1],"loss_changes":[7.068608E7,2.2081152E7,9.520941E7,5.7592E5,1.1524784E7,9.953894E7,3.0456E4,0E0,0E0,2.083272E6,0E0,4.036971E7,5.6379456E7,0E0,1.68428E5,0E0,0E0,0E0,0E0,0E0,0E0,0E0,0E0],"parents":[2147483647,0,0,1,1,2,2,3,3,4,4,5,5,6,6,9,9,11,11,12,12,14,14],"right_children":[2,4,6,8,10,12,14,-1,-1,16,-1,18,20,-1,22,-1,-1,-1,-1,-1,-1,-1,-1],"split_conditions":[2.0175E3,2.25E1,2.0205E3,4.85E1,3.1E1,2.0195E3,3.85E1,1.2869658E2,7.8030045E1,4.4E1,1.189566E2,3.65E1,9.5E0,3.875947E1,9.5E0,3.3690735E1,5.7035152E1,2.1270512E2,8.8557915E1,1.0015447E2,3.239615E2,4.971788E1,7.560651E1],"split_indices":[1,2,1,3,2,1,3,0,0,3,0,3,0,0,0,0,0,0,0,0,0,0,0],"split_type":[0,0,0,0,0,0,0,0,0,0,0,0,0,0,0,0,0,0,0,0,0,0,0],"sum_hessian":[1.68E2,7.9E1,8.9E1,2E1,5.9E1,5.6E1,3.3E1,1.2E1,8E0,5.4E1,5E0,3.8E1,1.8E1,5E0,2.8E1,3.5E1,1.9E1,9E0,2.9E1,5E0,1.3E1,1.1E1,1.7E1],"tree_param":{"num_deleted":"0","num_feature":"7","num_nodes":"23","size_leaf_vector":"0"}},{"base_weights":[1.98113E3,1.2978309E3,2.5664944E3,2.1589487E3,9.748092E2,3.3194514E3,1.228699E3,2.455135E3,1.4912408E3,8.147008E2,2.2800015E3,2.3382886E3,5.1587095E3,7.4288983E2,1.2868423E3,4.9982114E2,9.5437683E2,4.062668E3,1.6855524E3,5.884456E3,9.6604596E2,9.487829E2,1.440724E3],"categories":[],"categories_nodes":[],"categories_segments":[],"categories_sizes":[],"default_left":[1,1,1,1,1,1,1,0,0,1,0,1,1,0,1,0,0,0,0,0,0,0,0],"id":12,"left_children":[1,3,5,7,9,11,13,-1,-1,15,-1,17,19,-1,21,-1,-1,-1,-1,-1,-1,-1,-1],"loss_changes":[6.42656E7,2.0148208E7,8.657862E7,4.9188E5,1.0680812E7,9.080032E7,4.4E3,0E0,0E0,1.941948E6,0E0,3.7049184E7,5.212877E7,0E0,1.4168E5,0E0,0E0,0E0,0E0,0E0,0E0,0E0,0E0],"parents":[2147483647,0,0,1,1,2,2,3,3,4,4,5,5,6,6,9,9,11,11,12,12,14,14],"right_children":[2,4,6,8,10,12,14,-1,-1,16,-1,18,20,-1,22,-1,-1,-1,-1,-1,-1,-1,-1],"split_conditions":[2.0175E3,2.25E1,2.0205E3,4.85E1,3.1E1,2.0195E3,3.85E1,1.2275675E2,7.456204E1,2.0145E3,1.1400008E2,3.65E1,1.05E1,3.7144493E1,9.5E0,2.4991056E1,4.771884E1,2.031334E2,8.427762E1,2.942228E2,4.83023E1,4.7439144E1,7.20362E1],"split_indices":[1,2,1,3,2,1,3,0,0,1,0,3,0,0,0,0,0,0,0,0,0,0,0],"split_type":[0,0,0,0,0,0,0,0,0,0,0,0,0,0,0,0,0,0,0,0,0,0,0],"sum_hessian":[1.68E2,7.9E1,8.9E1,2E1,5.9E1,5.6E1,3.3E1,1.2E1,8E0,5.4E1,5E0,3.8E1,1.8E1,5E0,2.8E1,1.8E1,3.6E1,9E0,2.9E1,1.5E1,3E0,1.1E1,1.7E1],"tree_param":{"num_deleted":"0","num_feature":"7","num_nodes":"23","size_leaf_vector":"0"}},{"base_weights":[1.8890001E3,1.2377397E3,2.4469092E3,2.0603975E3,9.2918054E2,3.1645305E3,1.1718706E3,2.341821E3,1.4249635E3,7.752878E2,2.1850012E3,2.2287437E3,4.918802E3,6.041364E2,1.0445958E3,3.8798481E3,1.604084E3,1.6744418E3,5.957899E3],"categories":[],"categories_nodes":[],"categories_segments":[],"categories_sizes":[],"default_left":[1,1,1,1,1,1,0,0,0,1,0,1,1,0,0,0,0,0,0],"id":13,"left_children":[1,3,5,7,9,11,-1,-1,-1,13,-1,15,17,-1,-1,-1,-1,-1,-1],"loss_changes":[5.837651E7,1.83926E7,7.864109E7,4.18336E5,9.901704E6,8.260986E7,0E0,0E0,0E0,1.904006E6,0E0,3.4000144E7,5.4076736E7,0E0,0E0,0E0,0E0,0E0,0E0],"parents":[2147483647,0,0,1,1,2,2,3,3,4,4,5,5,9,9,11,11,12,12],"right_children":[2,4,6,8,10,12,-1,-1,-1,14,-1,16,18,-1,-1,-1,-1,-1,-1],"split_conditions":[2.0175E3,2.25E1,2.0205E3,4.85E1,3.1E1,2.0195E3,5.8593533E1,1.1709106E2,7.124818E1,4.4E1,1.0925006E2,3.65E1,9.5E0,3.0206821E1,5.2229794E1,1.9399242E2,8.02042E1,8.372209E1,2.9789496E2],"split_indices":[1,2,1,3,2,1,0,0,0,3,0,3,0,0,0,0,0,0,0],"split_type":[0,0,0,0,0,0,0,0,0,0,0,0,0,0,0,0,0,0,0],"sum_hessian":[1.68E2,7.9E1,8.9E1,2E1,5.9E1,5.6E1,3.3E1,1.2E1,8E0,5.4E1,5E0,3.8E1,1.8E1,3.5E1,1.9E1,9E0,2.9E1,5E0,1.3E1],"tree_param":{"num_deleted":"0","num_feature":"7","num_nodes":"19","size_leaf_vector":"0"}},{"base_weights":[1.801026E3,1.1806031E3,2.3325017E3,1.9663461E3,8.859163E2,3.0178096E3,1.1150004E3,2.233737E3,1.3616318E3,7.380222E2,2.0939597E3,1.1593497E3,3.7786711E3,6.631082E2,1.170047E3,5.747686E2,9.9497754E2,8.6463495E2,1.6046735E3,2.4811494E3,6.973851E3,8.5158636E2,1.3173514E3],"categories":[],"categories_nodes":[],"categories_segments":[],"categories_sizes":[],"default_left":[1,1,1,1,1,1,1,0,0,1,0,1,1,0,1,0,0,0,0,0,0,0,0],"id":14,"left_children":[1,3,5,7,9,11,13,-1,-1,15,-1,17,19,-1,21,-1,-1,-1,-1,-1,-1,-1,-1],"loss_changes":[5.297229E7,1.6781824E7,7.172781E7,3.54072E5,9.17436E6,7.621898E7,6.9888E4,0E0,0E0,1.735304E6,0E0,9.74926E5,1.485294E8,0E0,2.38568E5,0E0,0E0,0E0,0E0,0E0,0E0,0E0,0E0],"parents":[2147483647,0,0,1,1,2,2,3,3,4,4,5,5,6,6,9,9,11,11,12,12,14,14],"right_children":[2,4,6,8,10,12,14,-1,-1,16,-1,18,20,-1,22,-1,-1,-1,-1,-1,-1,-1,-1],"split_conditions":[2.0175E3,2.25E1,2.0205E3,4.85E1,3.1E1,9.5E0,3.85E1,1.1168685E2,6.80816E1,4.4E1,1.0469799E2,2.0195E3,2.9E1,3.315541E1,9.5E0,2.8738432E1,4.974888E1,4.3231747E1,8.023367E1,1.2405747E2,3.4869257E2,4.257932E1,6.586758E1],"split_indices":[1,2,1,3,2,0,3,0,0,3,0,1,2,0,0,0,0,0,0,0,0,0,0],"split_type":[0,0,0,0,0,0,0,0,0,0,0,0,0,0,0,0,0,0,0,0,0,0,0],"sum_hessian":[1.68E2,7.9E1,8.9E1,2E1,5.9E1,5.6E1,3.3E1,1.2E1,8E0,5.4E1,5E0,1.7E1,3.9E1,5E0,2.8E1,3.5E1,1.9E1,1.2E1,5E0,2.9E1,1E1,1.1E1,1.7E1],"tree_param":{"num_deleted":"0","num_feature":"7","num_nodes":"23","size_leaf_vector":"0"}},{"base_weights":[1.7174882E3,1.1261099E3,2.2240745E3,1.8765892E3,8.446736E2,2.877379E3,1.0634152E3,2.1306414E3,1.301115E3,7.0254816E2,2.0067113E3,1.1082415E3,3.6015562E3,6.354787E2,1.1152842E3,4.1350778E2,8.319865E2,8.247288E2,1.5378119E3,2.3612273E3,6.6568574E3,8.1255536E2,1.2551433E3],"categories":[],"categories_nodes":[],"categories_segments":[],"categories_sizes":[],"default_left":[1,1,1,1,1,1,1,0,0,1,0,1,1,0,1,0,0,0,0,0,0,0,0],"id":15,"left_children":[1,3,5,7,9,11,13,-1,-1,15,-1,17,19,-1,21,-1,-1,-1,-1,-1,-1,-1,-1],"loss_changes":[4.8125216E7,1.5311864E7,6.518387E7,2.98E5,8.499496E6,6.90353E7,4.5948E4,0E0,0E0,1.713676E6,0E0,9.23918E5,1.358648E8,0E0,2.07968E5,0E0,0E0,0E0,0E0,0E0,0E0,0E0,0E0],"parents":[2147483647,0,0,1,1,2,2,3,3,4,4,5,5,6,6,9,9,11,11,12,12,14,14],"right_children":[2,4,6,8,10,12,14,-1,-1,16,-1,18,20,-1,22,-1,-1,-1,-1,-1,-1,-1,-1],"split_conditions":[2.0175E3,2.25E1,2.0205E3,4.85E1,3.1E1,9.5E0,3.85E1,1.0653207E2,6.505575E1,2.0145E3,1.0033556E2,2.0195E3,2.9E1,3.1773935E1,9.5E0,2.067539E1,4.1599327E1,4.1236443E1,7.6890594E1,1.1806136E2,3.3284286E2,4.062777E1,6.2757168E1],"split_indices":[1,2,1,3,2,0,3,0,0,1,0,1,2,0,0,0,0,0,0,0,0,0,0],"split_type":[0,0,0,0,0,0,0,0,0,0,0,0,0,0,0,0,0,0,0,0,0,0,0],"sum_hessian":[1.68E2,7.9E1,8.9E1,2E1,5.9E1,5.6E1,3.3E1,1.2E1,8E0,5.4E1,5E0,1.7E1,3.9E1,5E0,2.8E1,1.8E1,3.6E1,1.2E1,5E0,2.9E1,1E1,1.1E1,1.7E1],"tree_param":{"num_deleted":"0","num_feature":"7","num_nodes":"23","size_leaf_vector":"0"}},{"base_weights":[1.637758E3,1.1794685E3,2.2387944E3,1.7626097E3,9.210319E2,3.2489675E3,1.0142196E3,3.9392053E2,1.0959181E3,2.104365E3,5.142589E3,6.090004E2,1.063085E3,1.1793152E2,4.194527E2,9.670033E2,1.9230983E3,1.1670593E3,3.487348E3,6.3542734E3,5.2480884E2,7.753132E2,1.1958726E3],"categories":[],"categories_nodes":[],"categories_segments":[],"categories_sizes":[],"default_left":[1,1,1,0,1,1,1,1,1,1,1,0,1,0,0,0,0,0,0,0,0,0,0],"id":16,"left_children":[1,3,5,-1,7,9,11,13,15,17,19,-1,21,-1,-1,-1,-1,-1,-1,-1,-1,-1,-1],"loss_changes":[4.391024E7,1.314568E7,8.577117E7,0E0,6.021212E6,7.370845E7,2.582E4,8.44185E4,3.68542E6,2.9633272E7,7.49993E7,0E0,1.80988E5,0E0,0E0,0E0,0E0,0E0,0E0,0E0,0E0,0E0,0E0],"parents":[2147483647,0,0,1,1,2,2,4,4,5,5,6,6,7,7,8,8,9,9,10,10,12,12],"right_children":[2,4,6,-1,8,10,12,14,16,18,20,-1,22,-1,-1,-1,-1,-1,-1,-1,-1,-1,-1],"split_conditions":[2.0185E3,2.25E1,2.0205E3,8.8130486E1,2.0145E3,4.4E1,3.85E1,3.95E1,3.1E1,1.05E1,1.05E1,3.0450022E1,9.5E0,5.896576E0,2.0972635E1,4.8350166E1,9.6154915E1,5.8352966E1,1.743674E2,3.1771368E2,2.6240442E1,3.876566E1,5.979363E1],"split_indices":[1,2,1,0,1,3,3,3,2,0,0,0,0,0,0,0,0,0,0,0,0,0,0],"split_type":[0,0,0,0,0,0,0,0,0,0,0,0,0,0,0,0,0,0,0,0,0,0,0],"sum_hessian":[1.68E2,9.7E1,7.1E1,2.8E1,6.9E1,3.8E1,3.3E1,1.8E1,5.1E1,2.5E1,1.3E1,5E0,2.8E1,2E0,1.6E1,4.6E1,5E0,1.6E1,9E0,1E1,3E0,1.1E1,1.7E1],"tree_param":{"num_deleted":"0","num_feature":"7","num_nodes":"23","size_leaf_vector":"0"}},{"base_weights":[1.5615813E3,1.01984E3,2.0257782E3,1.7069968E3,7.6233777E2,2.6216094E3,9.6730304E2,1.950953E3,1.1649495E3,6.3059E2,1.8429691E3,1.0070594E3,3.2826167E3,5.836254E2,1.01332935E3,5.4071783E2,1.0909993E3,7.3664734E2,1.425109E3,5.001202E3,1.4895538E3,7.39778E2,1.1394009E3],"categories":[],"categories_nodes":[],"categories_segments":[],"categories_sizes":[],"default_left":[1,1,1,1,1,1,1,0,0,1,0,1,1,0,1,0,0,0,0,0,0,0,0],"id":17,"left_children":[1,3,5,7,9,11,13,-1,-1,15,-1,17,19,-1,21,-1,-1,-1,-1,-1,-1,-1,-1],"loss_changes":[4.043325E7,1.2854248E7,5.422464E7,5.04188E5,7.380084E6,5.7526304E7,9.012E3,0E0,0E0,1.685864E6,0E0,9.8502E5,1.1581171E8,0E0,1.5722E5,0E0,0E0,0E0,0E0,0E0,0E0,0E0,0E0],"parents":[2147483647,0,0,1,1,2,2,3,3,4,4,5,5,6,6,9,9,11,11,12,12,14,14],"right_children":[2,4,6,8,10,12,14,-1,-1,16,-1,18,20,-1,22,-1,-1,-1,-1,-1,-1,-1,-1],"split_conditions":[2.0175E3,2.25E1,2.0205E3,4.85E1,3.1E1,9.5E0,3.85E1,9.754765E1,5.8247475E1,4.8E1,9.214846E1,2.0195E3,3.45E0,2.9181273E1,9.5E0,2.7035892E1,5.4549965E1,3.6832367E1,7.1255455E1,2.500601E2,7.447769E1,3.6988903E1,5.6970043E1],"split_indices":[1,2,1,3,2,0,3,0,0,3,0,1,4,0,0,0,0,0,0,0,0,0,0],"split_type":[0,0,0,0,0,0,0,0,0,0,0,0,0,0,0,0,0,0,0,0,0,0,0],"sum_hessian":[1.68E2,7.9E1,8.9E1,2E1,5.9E1,5.6E1,3.3E1,1.2E1,8E0,5.4E1,5E0,1.7E1,3.9E1,5E0,2.8E1,4.7E1,7E0,1.2E1,5E0,1.9E1,2E1,1.1E1,1.7E1],"tree_param":{"num_deleted":"0","num_feature":"7","num_nodes":"23","size_leaf_vector":"0"}},{"base_weights":[1.4887407E3,9.729671E2,1.9306644E3,1.6290658E3,7.2711646E2,2.498119E3,9.2255963E2,1.860909E3,1.1131738E3,6.005439E2,1.7661787E3,1.7482578E3,3.9058274E3,5.1424524E2,1.0432681E3,3.1053633E3,1.237614E3,4.5258525E3,4.492702E2],"categories":[],"categories_nodes":[],"categories_segments":[],"categories_sizes":[],"default_left":[1,1,1,1,1,1,0,0,0,1,0,1,1,0,0,0,0,0,0],"id":18,"left_children":[1,3,5,7,9,11,-1,-1,-1,13,-1,15,17,-1,-1,-1,-1,-1,-1],"loss_changes":[3.664211E7,1.1719664E7,4.918016E7,4.40212E5,6.83034E6,5.334E7,0E0,0E0,0E0,1.564862E6,0E0,2.3183648E7,3.868656E7,0E0,0E0,0E0,0E0,0E0,0E0],"parents":[2147483647,0,0,1,1,2,2,3,3,4,4,5,5,9,9,11,11,12,12],"right_children":[2,4,6,8,10,12,-1,-1,-1,14,-1,16,18,-1,-1,-1,-1,-1,-1],"split_conditions":[2.0175E3,2.25E1,2.0205E3,4.85E1,3.1E1,2.0195E3,4.6127983E1,9.3045456E1,5.565869E1,4.8E1,8.830894E1,3.65E1,1.05E1,2.5712263E1,5.2163403E1,1.5526817E2,6.1880703E1,2.2629263E2,2.246351E1],"split_indices":[1,2,1,3,2,1,0,0,0,3,0,3,0,0,0,0,0,0,0],"split_type":[0,0,0,0,0,0,0,0,0,0,0,0,0,0,0,0,0,0,0],"sum_hessian":[1.68E2,7.9E1,8.9E1,2E1,5.9E1,5.6E1,3.3E1,1.2E1,8E0,5.4E1,5E0,3.8E1,1.8E1,4.7E1,7E0,9E0,2.9E1,1.5E1,3E0],"tree_param":{"num_deleted":"0","num_feature":"7","num_nodes":"19","size_leaf_vector":"0"}},{"base_weights":[1.4191968E3,9.282549E2,1.8398207E3,1.5546937E3,6.935304E2,2.381387E3,8.777884E2,1.1616345E3,1.8708955E3,5.719326E2,1.692588E3,8.585984E2,3.007107E3,9.8385077E2,6.7785266E2,4.290578E2,8.005106E2,6.4552747E2,1.1771523E3,1.9442645E3,5.632395E3,6.635876E2,1.3015515E3],"categories":[],"categories_nodes":[],"categories_segments":[],"categories_sizes":[],"default_left":[1,1,1,1,1,1,1,0,0,1,0,1,1,1,0,0,0,0,0,0,0,0,0],"id":19,"left_children":[1,3,5,7,9,11,13,-1,-1,15,-1,17,19,21,-1,-1,-1,-1,-1,-1,-1,-1,-1],"loss_changes":[3.3191008E7,1.0685024E7,4.48E7,4.36708E5,6.320946E6,5.172995E7,5.4086E4,0E0,0E0,1.452728E6,0E0,4.61858E5,1.0065981E8,1.171264E6,0E0,0E0,0E0,0E0,0E0,0E0,0E0,0E0,0E0],"parents":[2147483647,0,0,1,1,2,2,3,3,4,4,5,5,6,6,9,9,11,11,12,12,13,13],"right_children":[2,4,6,8,10,12,14,-1,-1,16,-1,18,20,22,-1,-1,-1,-1,-1,-1,-1,-1,-1],"split_conditions":[2.0175E3,2.25E1,2.0205E3,2.0155E3,3.1E1,9.5E0,1.05E1,5.8081726E1,9.354478E1,4.4E1,8.46294E1,2.0195E3,2.9E1,9.5E0,3.3892635E1,2.145289E1,4.002553E1,3.2276375E1,5.8857616E1,9.721323E1,2.8161975E2,3.317938E1,6.5077576E1],"split_indices":[1,2,1,1,2,0,0,0,0,3,0,1,2,0,0,0,0,0,0,0,0,0,0],"split_type":[0,0,0,0,0,0,0,0,0,0,0,0,0,0,0,0,0,0,0,0,0,0,0],"sum_hessian":[1.68E2,7.9E1,8.9E1,2E1,5.9E1,5.6E1,3.3E1,1.1E1,9E0,5.4E1,5E0,1.7E1,3.9E1,1.9E1,1.4E1,3.5E1,1.9E1,1.2E1,5E0,2.9E1,1E1,1.1E1,8E0],"tree_param":{"num_deleted":"0","num_feature":"7","num_nodes":"23","size_leaf_vector":"0"}},{"base_weights":[1.3535615E3,8.8556384E2,1.7545198E3,1.4841793E3,6.61289E2,2.2705625E3,8.3778577E2,1.1083928E3,1.7867052E3,5.444538E2,1.6220636E3,8.2073145E2,2.8662224E3,4.926239E2,8.803094E2,4.634195E2,9.626027E2,6.1573395E2,1.1281041E3,1.8502917E3,5.3763774E3,6.331732E2,9.961608E2],"categories":[],"categories_nodes":[],"categories_segments":[],"categories_sizes":[],"default_left":[1,1,1,1,1,1,1,0,0,1,0,1,1,0,1,0,0,0,0,0,0,0,0],"id":20,"left_children":[1,3,5,7,9,11,13,-1,-1,15,-1,17,19,-1,21,-1,-1,-1,-1,-1,-1,-1,-1],"loss_changes":[3.015872E7,9.75888E6,4.06744E7,4.07016E5,5.852E6,4.687315E7,6.5376E4,0E0,0E0,1.417554E6,0E0,4.3958E5,9.205789E7,0E0,1.99558E5,0E0,0E0,0E0,0E0,0E0,0E0,0E0,0E0],"parents":[2147483647,0,0,1,1,2,2,3,3,4,4,5,5,6,6,9,9,11,11,12,12,14,14],"right_children":[2,4,6,8,10,12,14,-1,-1,16,-1,18,20,-1,22,-1,-1,-1,-1,-1,-1,-1,-1],"split_conditions":[2.0175E3,2.25E1,2.0205E3,2.0155E3,3.1E1,9.5E0,3.85E1,5.5419643E1,8.933526E1,4.8E1,8.110318E1,2.0195E3,2.9E1,2.4631195E1,9.5E0,2.3170975E1,4.813014E1,3.0786697E1,5.640521E1,9.251459E1,2.6881888E2,3.165866E1,4.980804E1],"split_indices":[1,2,1,1,2,0,3,0,0,3,0,1,2,0,0,0,0,0,0,0,0,0,0],"split_type":[0,0,0,0,0,0,0,0,0,0,0,0,0,0,0,0,0,0,0,0,0,0,0],"sum_hessian":[1.68E2,7.9E1,8.9E1,2E1,5.9E1,5.6E1,3.3E1,1.1E1,9E0,5.4E1,5E0,1.7E1,3.9E1,5E0,2.8E1,4.7E1,7E0,1.2E1,5E0,2.9E1,1E1,1.1E1,1.7E1],"tree_param":{"num_deleted":"0","num_feature":"7","num_nodes":"23","size_leaf_vector":"0"}},{"base_weights":[1.2909235E3,9.2890643E2,1.7657394E3,1.3774669E3,7.2980414E2,2.5632476E3,7.99017E2,1.7063036E3,1.1441753E3,2.7215115E2,8.829888E2,1.6290076E3,4.115176E3,9.022356E2,6.0812445E2,4.9085773E1,2.955067E2,7.7847986E2,1.5544775E3,8.473841E2,2.7948667E3,5.1319956E3,2.9012677E2,6.041527E2,1.199431E3],"categories":[],"categories_nodes":[],"categories_segments":[],"categories_sizes":[],"default_left":[1,1,1,1,1,1,1,0,0,1,1,1,1,1,0,0,0,0,0,0,0,0,0,0,0],"id":21,"left_children":[1,3,5,7,9,11,13,-1,-1,15,17,19,21,23,-1,-1,-1,-1,-1,-1,-1,-1,-1,-1,-1],"loss_changes":[2.7409472E7,7.74704E6,5.3461696E7,2.7242E5,4.667076E6,4.984141E7,1.21252E5,0E0,0E0,8.44815E4,2.439052E6,2.1324512E7,5.296248E7,1.047138E6,0E0,0E0,0E0,0E0,0E0,0E0,0E0,0E0,0E0,0E0,0E0],"parents":[2147483647,0,0,1,1,2,2,3,3,4,4,5,5,6,6,9,9,10,10,11,11,12,12,13,13],"right_children":[2,4,6,8,10,12,14,-1,-1,16,18,20,22,24,-1,-1,-1,-1,-1,-1,-1,-1,-1,-1,-1],"split_conditions":[2.0185E3,2.25E1,2.0205E3,1.415E1,2.0145E3,4.4E1,1.05E1,8.531518E1,5.7208767E1,3.95E1,3.1E1,1.05E1,1.05E1,9.5E0,3.0406223E1,2.4542887E0,1.4775336E1,3.8923992E1,7.772388E1,4.2369205E1,1.3974333E2,2.565998E2,1.4506339E1,3.0207636E1,5.9971554E1],"split_indices":[1,2,1,4,1,3,0,0,0,3,2,0,0,0,0,0,0,0,0,0,0,0,0,0,0],"split_type":[0,0,0,0,0,0,0,0,0,0,0,0,0,0,0,0,0,0,0,0,0,0,0,0,0],"sum_hessian":[1.68E2,9.7E1,7.1E1,2.8E1,6.9E1,3.8E1,3.3E1,9E0,1.9E1,1.8E1,5.1E1,2.5E1,1.3E1,1.9E1,1.4E1,2E0,1.6E1,4.6E1,5E0,1.6E1,9E0,1E1,3E0,1.1E1,8E0],"tree_param":{"num_deleted":"0","num_feature":"7","num_nodes":"25","size_leaf_vector":"0"}},{"base_weights":[1.2314081E3,8.02146E2,1.5992921E3,1.3503334E3,5.969113E2,2.0703064E3,7.626128E2,1.5499529E3,9.1195703E2,4.8866245E2,1.4897076E3,7.454805E2,2.6147202E3,8.616328E2,5.797453E2,4.1118112E2,8.924675E2,5.495304E2,1.0457924E3,4.028847E3,1.1434225E3,5.7646234E2,1.146123E3],"categories":[],"categories_nodes":[],"categories_segments":[],"categories_sizes":[],"default_left":[1,1,1,1,1,1,1,0,0,1,0,1,1,1,0,0,0,0,0,0,0,0,0],"id":22,"left_children":[1,3,5,7,9,11,13,-1,-1,15,-1,17,19,21,-1,-1,-1,-1,-1,-1,-1,-1,-1],"loss_changes":[2.5405376E7,8.194536E6,3.3889056E7,4.24184E5,5.07069E6,3.916224E7,1.16128E5,0E0,0E0,1.353839E6,0E0,4.84536E5,7.861734E7,9.61867E5,0E0,0E0,0E0,0E0,0E0,0E0,0E0,0E0,0E0],"parents":[2147483647,0,0,1,1,2,2,3,3,4,4,5,5,6,6,9,9,11,11,12,12,13,13],"right_children":[2,4,6,8,10,12,14,-1,-1,16,-1,18,20,22,-1,-1,-1,-1,-1,-1,-1,-1,-1],"split_conditions":[2.0175E3,2.25E1,2.0205E3,4.85E1,3.1E1,9.5E0,1.05E1,7.749764E1,4.559785E1,4.8E1,7.448538E1,2.0195E3,3.45E0,9.5E0,2.8987265E1,2.0559057E1,4.462338E1,2.747652E1,5.228962E1,2.0144235E2,5.7171124E1,2.8823118E1,5.7306152E1],"split_indices":[1,2,1,3,2,0,0,0,0,3,0,1,4,0,0,0,0,0,0,0,0,0,0],"split_type":[0,0,0,0,0,0,0,0,0,0,0,0,0,0,0,0,0,0,0,0,0,0,0],"sum_hessian":[1.68E2,7.9E1,8.9E1,2E1,5.9E1,5.6E1,3.3E1,1.2E1,8E0,5.4E1,5E0,1.7E1,3.9E1,1.9E1,1.4E1,4.7E1,7E0,1.2E1,5E0,1.9E1,2E1,1.1E1,8E0],"tree_param":{"num_deleted":"0","num_feature":"7","num_nodes":"23","size_leaf_vector":"0"}},{"base_weights":[1.1740759E3,7.6532324E2,1.5243663E3,1.2886785E3,5.6939355E2,1.9727274E3,7.278679E2,9.553771E2,1.5597722E3,4.6541443E2,1.4276366E3,7.1263794E2,2.4904495E3,8.228576E2,5.526904E2,2.431872E2,5.8545325E2,5.241674E2,1.0022176E3,1.5915483E3,4.7155938E3,6.528106E2,1.3398429E3],"categories":[],"categories_nodes":[],"categories_segments":[],"categories_sizes":[],"default_left":[1,1,1,1,1,1,1,0,0,1,0,1,1,1,0,0,0,0,0,0,0,0,0],"id":23,"left_children":[1,3,5,7,9,11,13,-1,-1,15,-1,17,19,21,-1,-1,-1,-1,-1,-1,-1,-1,-1],"loss_changes":[2.3031136E7,7.4695E6,3.0704816E7,4.07304E5,4.689918E6,3.541064E7,1.10976E5,0E0,0E0,1.324799E6,0E0,4.5706E5,7.250229E7,8.83572E5,0E0,0E0,0E0,0E0,0E0,0E0,0E0,0E0,0E0],"parents":[2147483647,0,0,1,1,2,2,3,3,4,4,5,5,6,6,9,9,11,11,12,12,13,13],"right_children":[2,4,6,8,10,12,14,-1,-1,16,-1,18,20,22,-1,-1,-1,-1,-1,-1,-1,-1,-1],"split_conditions":[2.0175E3,2.25E1,2.0205E3,2.0155E3,3.1E1,9.5E0,1.05E1,4.7768856E1,7.798861E1,2.5E-1,7.138183E1,2.0195E3,2.9E1,4.55E1,2.7634521E1,1.215936E1,2.9272663E1,2.6208372E1,5.011088E1,7.9577415E1,2.357797E2,3.264053E1,6.699215E1],"split_indices":[1,2,1,1,2,0,0,0,0,4,0,1,2,3,0,0,0,0,0,0,0,0,0],"split_type":[0,0,0,0,0,0,0,0,0,0,0,0,0,0,0,0,0,0,0,0,0,0,0],"sum_hessian":[1.68E2,7.9E1,8.9E1,2E1,5.9E1,5.6E1,3.3E1,1.1E1,9E0,5.4E1,5E0,1.7E1,3.9E1,1.9E1,1.4E1,2E1,3.4E1,1.2E1,5E0,2.9E1,1E1,1.6E1,3E0],"tree_param":{"num_deleted":"0","num_feature":"7","num_nodes":"23","size_leaf_vector":"0"}},{"base_weights":[1.1198545E3,7.3003925E2,1.4539142E3,1.230233E3,5.428041E2,1.8809626E3,6.952177E2,9.1158905E2,1.4895825E3,4.42897E2,1.3681517E3,6.8124603E2,2.373811E3,7.866964E2,5.268982E2,3.6951807E2,8.278085E2,4.999751E2,9.604587E2,3.683777E3,1.01318585E3,5.201208E2,1.0547198E3],"categories":[],"categories_nodes":[],"categories_segments":[],"categories_sizes":[],"default_left":[1,1,1,1,1,1,1,0,0,1,0,1,1,1,0,0,0,0,0,0,0,0,0],"id":24,"left_children":[1,3,5,7,9,11,13,-1,-1,15,-1,17,19,21,-1,-1,-1,-1,-1,-1,-1,-1,-1],"loss_changes":[2.0946048E7,6.824532E6,2.7852336E7,3.77558E5,4.341534E6,3.2085712E7,1.09011E5,0E0,0E0,1.247552E6,0E0,4.308305E5,6.756259E7,8.80388E5,0E0,0E0,0E0,0E0,0E0,0E0,0E0,0E0,0E0],"parents":[2147483647,0,0,1,1,2,2,3,3,4,4,5,5,6,6,9,9,11,11,12,12,13,13],"right_children":[2,4,6,8,10,12,14,-1,-1,16,-1,18,20,22,-1,-1,-1,-1,-1,-1,-1,-1,-1],"split_conditions":[2.0175E3,2.25E1,2.0205E3,2.0155E3,3.1E1,9.5E0,1.05E1,4.5579453E1,7.4479126E1,4.8E1,6.8407585E1,2.0195E3,3.45E0,9.5E0,2.634491E1,1.8475904E1,4.1390423E1,2.4998755E1,4.8022934E1,1.8418886E2,5.0659294E1,2.600604E1,5.2735992E1],"split_indices":[1,2,1,1,2,0,0,0,0,3,0,1,4,0,0,0,0,0,0,0,0,0,0],"split_type":[0,0,0,0,0,0,0,0,0,0,0,0,0,0,0,0,0,0,0,0,0,0,0],"sum_hessian":[1.68E2,7.9E1,8.9E1,2E1,5.9E1,5.6E1,3.3E1,1.1E1,9E0,5.4E1,5E0,1.7E1,3.9E1,1.9E1,1.4E1,4.7E1,7E0,1.2E1,5E0,1.9E1,2E1,1.1E1,8E0],"tree_param":{"num_deleted":"0","num_feature":"7","num_nodes":"23","size_leaf_vector":"0"}},{"base_weights":[1.0677748E3,6.966415E2,1.3858069E3,1.1744386E3,5.178018E2,1.7923158E3,6.635476E2,1.3513203E3,7.8844946E2,4.2184064E2,1.3111455E3,1.2413524E3,2.8289082E3,7.512987E2,5.0230963E2,2.978714E2,6.2389325E2,1.7406835E3,4.92766E2,3.3246558E3,1.3869122E2,5.897522E2,1.2500469E3],"categories":[],"categories_nodes":[],"categories_segments":[],"categories_sizes":[],"default_left":[1,1,1,1,1,1,1,0,0,1,0,1,1,1,0,0,0,0,0,0,0,0,0],"id":25,"left_children":[1,3,5,7,9,11,13,-1,-1,15,-1,17,19,21,-1,-1,-1,-1,-1,-1,-1,-1,-1],"loss_changes":[1.8982048E7,6.227796E6,2.5235152E7,3.68316E5,4.014718E6,2.9042432E7,1.03675E5,0E0,0E0,1.191817E6,0E0,1.372016E7,2.4878608E7,8.74202E5,0E0,0E0,0E0,0E0,0E0,0E0,0E0,0E0,0E0],"parents":[2147483647,0,0,1,1,2,2,3,3,4,4,5,5,6,6,9,9,11,11,12,12,13,13],"right_children":[2,4,6,8,10,12,14,-1,-1,16,-1,18,20,22,-1,-1,-1,-1,-1,-1,-1,-1,-1],"split_conditions":[2.0175E3,2.25E1,2.0205E3,4.85E1,3.1E1,2.0195E3,1.05E1,6.756602E1,3.9422474E1,4.4E1,6.5557274E1,2.75E1,1.05E1,4.55E1,2.5115482E1,1.489357E1,3.1194662E1,8.703417E1,2.46383E1,1.6623279E2,6.9345613E0,2.948761E1,6.2502346E1],"split_indices":[1,2,1,3,2,1,0,0,0,3,0,2,0,3,0,0,0,0,0,0,0,0,0],"split_type":[0,0,0,0,0,0,0,0,0,0,0,0,0,0,0,0,0,0,0,0,0,0,0],"sum_hessian":[1.68E2,7.9E1,8.9E1,2E1,5.9E1,5.6E1,3.3E1,1.2E1,8E0,5.4E1,5E0,3.8E1,1.8E1,1.9E1,1.4E1,3.5E1,1.9E1,2.2E1,1.6E1,1.5E1,3E0,1.6E1,3E0],"tree_param":{"num_deleted":"0","num_feature":"7","num_nodes":"23","size_leaf_vector":"0"}},{"base_weights":[1.0180581E3,6.645423E2,1.3209827E3,1.1208114E3,4.9377246E2,1.7076973E3,6.338146E2,8.266349E2,1.3617421E3,4.0158658E2,1.2565143E3,5.886391E2,2.168581E3,7.183333E2,4.7886853E2,1.9361647E2,5.148947E2,4.5415625E2,7.819121E2,1.3577903E3,4.1826846E3,5.619992E2,1.20317E3],"categories":[],"categories_nodes":[],"categories_segments":[],"categories_sizes":[],"default_left":[1,1,1,1,1,1,1,0,0,1,0,1,1,1,0,0,0,0,0,0,0,0,0],"id":26,"left_children":[1,3,5,7,9,11,13,-1,-1,15,-1,17,19,21,-1,-1,-1,-1,-1,-1,-1,-1,-1],"loss_changes":[1.7220128E7,5.679936E6,2.2834064E7,3.62736E5,3.714242E6,2.8121552E7,1.01271E5,0E0,0E0,1.196367E6,0E0,1.12744E5,5.9641456E7,8.3975E5,0E0,0E0,0E0,0E0,0E0,0E0,0E0,0E0,0E0],"parents":[2147483647,0,0,1,1,2,2,3,3,4,4,5,5,6,6,9,9,11,11,12,12,13,13],"right_children":[2,4,6,8,10,12,14,-1,-1,16,-1,18,20,22,-1,-1,-1,-1,-1,-1,-1,-1,-1],"split_conditions":[2.0175E3,2.25E1,2.0205E3,2.0155E3,3.1E1,9.5E0,1.05E1,4.1331745E1,6.8087105E1,2.5E-1,6.2825714E1,2.0195E3,2.9E1,4.55E1,2.3943426E1,9.680823E0,2.5744736E1,2.2707813E1,3.9095608E1,6.788952E1,2.0913423E2,2.809996E1,6.0158504E1],"split_indices":[1,2,1,1,2,0,0,0,0,4,0,1,2,3,0,0,0,0,0,0,0,0,0],"split_type":[0,0,0,0,0,0,0,0,0,0,0,0,0,0,0,0,0,0,0,0,0,0,0],"sum_hessian":[1.68E2,7.9E1,8.9E1,2E1,5.9E1,5.6E1,3.3E1,1.1E1,9E0,5.4E1,5E0,1.7E1,3.9E1,1.9E1,1.4E1,2E1,3.4E1,1.2E1,5E0,2.9E1,1E1,1.6E1,3E0],"tree_param":{"num_deleted":"0","num_feature":"7","num_nodes":"23","size_leaf_vector":"0"}},{"base_weights":[9.7105286E2,6.961055E2,1.3317999E3,4.5341537E2,8.854565E2,1.9309022E3,6.054238E2,3.2946838E2,1.2041595E3,6.028874E2,1.2400979E3,1.1944884E3,3.1606062E3,3.3673798E2,6.401373E2,7.058926E2,2.1330319E2,4.6150037E2,8.677889E2,1.4350776E3,7.773431E2,5.851125E2,2.1109785E3,3.9925632E3,8.257324E1,4.4349332E2,7.3567017E2],"categories":[],"categories_nodes":[],"categories_segments":[],"categories_sizes":[],"default_left":[1,1,1,1,1,1,1,1,0,1,1,1,1,0,1,0,0,0,0,0,0,0,0,0,0,0,0],"id":27,"left_children":[1,3,5,7,9,11,13,15,-1,17,19,21,23,-1,25,-1,-1,-1,-1,-1,-1,-1,-1,-1,-1,-1,-1],"loss_changes":[1.583544E7,4.101972E6,3.0163472E7,3.79063E6,4.66374E6,3.1541968E7,1.01561E5,1.5985265E6,0E0,7.98031E5,9.59692E5,1.3285504E7,3.552141E7,0E0,2.18528E5,0E0,0E0,0E0,0E0,0E0,0E0,0E0,0E0,0E0,0E0,0E0,0E0],"parents":[2147483647,0,0,1,1,2,2,3,3,4,4,5,5,6,6,7,7,9,9,10,10,11,11,12,12,14,14],"right_children":[2,4,6,8,10,12,14,16,-1,18,20,22,24,-1,26,-1,-1,-1,-1,-1,-1,-1,-1,-1,-1,-1,-1],"split_conditions":[2.0185E3,2.95E0,2.0205E3,3.1E1,2.0165E3,4.4E1,3.85E1,2.35E1,6.0207977E1,2.7E1,4.8E1,1.05E1,1.05E1,1.6836899E1,9.5E0,3.529463E1,1.066516E1,2.3075018E1,4.3389446E1,7.175388E1,3.8867153E1,2.9255625E1,1.0554893E2,1.9962816E2,4.128662E0,2.2174665E1,3.678351E1],"split_indices":[1,4,1,2,1,3,3,2,0,2,3,0,0,0,0,0,0,0,0,0,0,0,0,0,0,0,0],"split_type":[0,0,0,0,0,0,0,0,0,0,0,0,0,0,0,0,0,0,0,0,0,0,0,0,0,0,0],"sum_hessian":[1.68E2,9.7E1,7.1E1,4.4E1,5.3E1,3.8E1,3.3E1,3.9E1,5E0,3.1E1,2.2E1,2.5E1,1.3E1,5E0,2.8E1,8E0,3.1E1,2.2E1,9E0,1.4E1,8E0,1.6E1,9E0,1E1,3E0,1.1E1,1.7E1],"tree_param":{"num_deleted":"0","num_feature":"7","num_nodes":"27","size_leaf_vector":"0"}},{"base_weights":[9.266281E2,5.195129E2,1.145962E3,4.4225656E2,1.1539862E3,5.389546E2,1.425777E3,-6.730009E1,5.9787366E2,4.8556934E2,7.2495264E2,9.935248E2,3.811083E3,1.1162133E2,-3.2446555E2,6.285837E2,-2.1120932E1,2.0159844E3,7.8955896E2],"categories":[],"categories_nodes":[],"categories_segments":[],"categories_sizes":[],"default_left":[1,1,1,1,0,1,1,1,1,0,0,1,0,0,0,0,0,0,0],"id":28,"left_children":[1,3,5,7,-1,9,11,13,15,-1,-1,17,-1,-1,-1,-1,-1,-1,-1],"loss_changes":[1.4495376E7,2.479682E6,1.77452E7,4.480798E6,0E0,5.448E3,7.251158E7,6.8039094E5,8.30677E5,0E0,0E0,1.1755264E7,0E0,0E0,0E0,0E0,0E0,0E0,0E0],"parents":[2147483647,0,0,1,1,2,2,3,3,5,5,6,6,7,7,8,8,11,11],"right_children":[2,4,6,8,-1,10,12,14,16,-1,-1,18,-1,-1,-1,-1,-1,-1,-1],"split_conditions":[2.0165E3,3.1E1,9.5E0,2.5E-1,5.769931E1,3.15E1,2.9E1,2.015E3,5.2E1,2.4278467E1,3.624763E1,3.4E1,1.9055415E2,5.5810666E0,-1.6223278E1,3.1429184E1,-1.0560466E0,1.0079922E2,3.9477947E1],"split_indices":[1,2,0,4,0,2,2,1,3,0,0,3,0,0,0,0,0,0,0],"split_type":[0,0,0,0,0,0,0,0,0,0,0,0,0,0,0,0,0,0,0],"sum_hessian":[1.68E2,6E1,1.08E2,5.5E1,5E0,3.5E1,7.3E1,1.3E1,4.2E1,3E1,5E0,6.3E1,1E1,8E0,5E0,4E1,2E0,9E0,5.4E1],"tree_param":{"num_deleted":"0","num_feature":"7","num_nodes":"19","size_leaf_vector":"0"}},{"base_weights":[8.830706E2,4.9480655E2,1.0922544E3,4.2049603E2,1.1059034E3,5.136882E2,1.358959E3,-6.469524E1,5.686863E2,4.6207407E2,6.947463E2,9.460404E2,3.6378523E3,1.0666039E2,-3.1094614E2,5.97921E2,-2.041691E1,1.9252653E3,7.5079877E2],"categories":[],"categories_nodes":[],"categories_segments":[],"categories_sizes":[],"default_left":[1,1,1,1,0,1,1,1,1,0,0,1,0,0,0,0,0,0,0],"id":29,"left_children":[1,3,5,7,-1,9,11,13,15,-1,-1,17,-1,-1,-1,-1,-1,-1,-1],"loss_changes":[1.3185488E7,2.305038E6,1.6121296E7,4.063227E6,0E0,1.5402E4,6.6192256E7,6.239164E5,7.52766E5,0E0,0E0,1.079038E7,0E0,0E0,0E0,0E0,0E0,0E0,0E0],"parents":[2147483647,0,0,1,1,2,2,3,3,5,5,6,6,7,7,8,8,11,11],"right_children":[2,4,6,8,-1,10,12,14,16,-1,-1,18,-1,-1,-1,-1,-1,-1,-1],"split_conditions":[2.0165E3,3.1E1,9.5E0,2.5E-1,5.5295174E1,3.15E1,2.9E1,2.015E3,5.2E1,2.3103704E1,3.4737316E1,3.4E1,1.8189262E2,5.3330197E0,-1.5547307E1,2.9896051E1,-1.0208455E0,9.626327E1,3.753994E1],"split_indices":[1,2,0,4,0,2,2,1,3,0,0,3,0,0,0,0,0,0,0],"split_type":[0,0,0,0,0,0,0,0,0,0,0,0,0,0,0,0,0,0,0],"sum_hessian":[1.68E2,6E1,1.08E2,5.5E1,5E0,3.5E1,7.3E1,1.3E1,4.2E1,3E1,5E0,6.3E1,1E1,8E0,5E0,4E1,2E0,9E0,5.4E1],"tree_param":{"num_deleted":"0","num_feature":"7","num_nodes":"19","size_leaf_vector":"0"}},{"base_weights":[8.4156494E2,4.7127866E2,1.0410686E3,3.998045E2,1.0598242E3,4.8961038E2,1.2952771E3,-6.219004E1,5.409236E2,4.3971558E2,6.657985E2,9.00829E2,3.4724956E3,1.01919945E2,-2.9799002E2,5.687542E2,-1.9736328E1,1.8386282E3,7.1394135E2],"categories":[],"categories_nodes":[],"categories_segments":[],"categories_sizes":[],"default_left":[1,1,1,1,0,1,1,1,1,0,0,1,0,0,0,0,0,0,0],"id":30,"left_children":[1,3,5,7,-1,9,11,13,15,-1,-1,17,-1,-1,-1,-1,-1,-1,-1],"loss_changes":[1.1993992E7,2.142291E6,1.4646024E7,3.684628E6,0E0,2.371E4,6.0423064E7,5.721309E5,6.82177E5,0E0,0E0,9.904164E6,0E0,0E0,0E0,0E0,0E0,0E0,0E0],"parents":[2147483647,0,0,1,1,2,2,3,3,5,5,6,6,7,7,8,8,11,11],"right_children":[2,4,6,8,-1,10,12,14,16,-1,-1,18,-1,-1,-1,-1,-1,-1,-1],"split_conditions":[2.0165E3,3.1E1,9.5E0,2.5E-1,5.299121E1,3.15E1,2.9E1,2.015E3,5.2E1,2.1985779E1,3.328993E1,3.4E1,1.7362479E2,5.0959973E0,-1.4899501E1,2.8437712E1,-9.868164E-1,9.193141E1,3.5697067E1],"split_indices":[1,2,0,4,0,2,2,1,3,0,0,3,0,0,0,0,0,0,0],"split_type":[0,0,0,0,0,0,0,0,0,0,0,0,0,0,0,0,0,0,0],"sum_hessian":[1.68E2,6E1,1.08E2,5.5E1,5E0,3.5E1,7.3E1,1.3E1,4.2E1,3E1,5E0,6.3E1,1E1,8E0,5E0,4E1,2E0,9E0,5.4E1],"tree_param":{"num_deleted":"0","num_feature":"7","num_nodes":"19","size_leaf_vector":"0"}},{"base_weights":[8.0201434E2,4.488727E2,9.9228613E2,3.801294E2,1.01566486E3,4.6666534E2,1.2345842E3,-5.9780785E1,5.1451575E2,4.184391E2,6.380568E2,8.5778174E2,3.3146548E3,9.739016E1,-2.8557373E2,5.410101E2,-1.9078451E1,1.7558899E3,6.788934E2],"categories":[],"categories_nodes":[],"categories_segments":[],"categories_sizes":[],"default_left":[1,1,1,1,0,1,1,1,1,0,0,1,0,0,0,0,0,0,0],"id":31,"left_children":[1,3,5,7,-1,9,11,13,15,-1,-1,17,-1,-1,-1,-1,-1,-1,-1],"loss_changes":[1.0910184E7,1.99067E6,1.3305768E7,3.3413615E6,0E0,3.05725E4,5.515616E7,5.246453E5,6.18222E5,0E0,0E0,9.090252E6,0E0,0E0,0E0,0E0,0E0,0E0,0E0],"parents":[2147483647,0,0,1,1,2,2,3,3,5,5,6,6,7,7,8,8,11,11],"right_children":[2,4,6,8,-1,10,12,14,16,-1,-1,18,-1,-1,-1,-1,-1,-1,-1],"split_conditions":[2.0165E3,3.1E1,9.5E0,2.5E-1,5.0783245E1,3.15E1,2.9E1,2.015E3,5.2E1,2.0921955E1,3.1902842E1,3.4E1,1.6573274E2,4.8695083E0,-1.4278687E1,2.7050505E1,-9.5392257E-1,8.7794495E1,3.3944668E1],"split_indices":[1,2,0,4,0,2,2,1,3,0,0,3,0,0,0,0,0,0,0],"split_type":[0,0,0,0,0,0,0,0,0,0,0,0,0,0,0,0,0,0,0],"sum_hessian":[1.68E2,6E1,1.08E2,5.5E1,5E0,3.5E1,7.3E1,1.3E1,4.2E1,3E1,5E0,6.3E1,1E1,8E0,5E0,4E1,2E0,9E0,5.4E1],"tree_param":{"num_deleted":"0","num_feature":"7","num_nodes":"19","size_leaf_vector":"0"}},{"base_weights":[7.643265E2,4.2753516E2,9.457938E2,3.6142093E2,9.733455E2,4.447994E2,1.1767399E3,-5.746383E1,4.8939685E2,3.98192E2,6.114712E2,8.1679486E2,3.1639888E3,9.306171E1,-2.7367484E2,5.146193E2,-1.8442465E1,1.6768746E3,6.455659E2],"categories":[],"categories_nodes":[],"categories_segments":[],"categories_sizes":[],"default_left":[1,1,1,1,0,1,1,1,1,0,0,1,0,0,0,0,0,0,0],"id":32,"left_children":[1,3,5,7,-1,9,11,13,15,-1,-1,17,-1,-1,-1,-1,-1,-1,-1],"loss_changes":[9.924352E6,1.849449E6,1.2088176E7,3.0301235E6,0E0,3.61705E4,5.034788E7,4.8110253E5,5.60276E5,0E0,0E0,8.342784E6,0E0,0E0,0E0,0E0,0E0,0E0,0E0],"parents":[2147483647,0,0,1,1,2,2,3,3,5,5,6,6,7,7,8,8,11,11],"right_children":[2,4,6,8,-1,10,12,14,16,-1,-1,18,-1,-1,-1,-1,-1,-1,-1],"split_conditions":[2.0165E3,3.1E1,9.5E0,2.5E-1,4.866728E1,3.15E1,2.9E1,2.015E3,5.2E1,1.99096E1,3.057356E1,3.4E1,1.5819945E2,4.653085E0,-1.3683742E1,2.5730967E1,-9.2212325E-1,8.3843735E1,3.2278297E1],"split_indices":[1,2,0,4,0,2,2,1,3,0,0,3,0,0,0,0,0,0,0],"split_type":[0,0,0,0,0,0,0,0,0,0,0,0,0,0,0,0,0,0,0],"sum_hessian":[1.68E2,6E1,1.08E2,5.5E1,5E0,3.5E1,7.3E1,1.3E1,4.2E1,3E1,5E0,6.3E1,1E1,8E0,5E0,4E1,2E0,9E0,5.4E1],"tree_param":{"num_deleted":"0","num_feature":"7","num_nodes":"19","size_leaf_vector":"0"}},{"base_weights":[7.284134E2,4.0721487E2,9.01484E2,3.4363162E2,9.3278955E2,4.239618E2,1.1216099E3,-5.5235687E1,4.6550397E2,3.7892468E2,5.8599316E2,7.777695E2,3.0201711E3,8.892564E1,-2.6227173E2,3.5440695E2,6.308297E2,1.6014153E3,6.1387445E2],"categories":[],"categories_nodes":[],"categories_segments":[],"categories_sizes":[],"default_left":[1,1,1,1,0,1,1,1,1,0,0,1,0,0,0,0,0,0,0],"id":33,"left_children":[1,3,5,7,-1,9,11,13,15,-1,-1,17,-1,-1,-1,-1,-1,-1,-1],"loss_changes":[9.027616E6,1.717947E6,1.0982016E7,2.7479225E6,0E0,4.06605E4,4.595836E7,4.4117494E5,5.66219E5,0E0,0E0,7.656384E6,0E0,0E0,0E0,0E0,0E0,0E0,0E0],"parents":[2147483647,0,0,1,1,2,2,3,3,5,5,6,6,7,7,8,8,11,11],"right_children":[2,4,6,8,-1,10,12,14,16,-1,-1,18,-1,-1,-1,-1,-1,-1,-1],"split_conditions":[2.0165E3,3.1E1,9.5E0,2.5E-1,4.6639477E1,3.15E1,2.9E1,2.015E3,4.8E1,1.8946234E1,2.9299658E1,3.4E1,1.5100856E2,4.446282E0,-1.3113586E1,1.7720348E1,3.1541487E1,8.007076E1,3.0693724E1],"split_indices":[1,2,0,4,0,2,2,1,3,0,0,3,0,0,0,0,0,0,0],"split_type":[0,0,0,0,0,0,0,0,0,0,0,0,0,0,0,0,0,0,0],"sum_hessian":[1.68E2,6E1,1.08E2,5.5E1,5E0,3.5E1,7.3E1,1.3E1,4.2E1,3E1,5E0,6.3E1,1E1,8E0,5E0,2.7E1,1.5E1,9E0,5.4E1],"tree_param":{"num_deleted":"0","num_feature":"7","num_nodes":"19","size_leaf_vector":"0"}},{"base_weights":[6.943433E2,3.882842E2,8.59254E2,3.2717493E2,8.9392334E2,4.0410385E2,1.0690669E3,-5.309302E1,4.433744E2,3.6058957E2,5.6157697E2,7.4061176E2,2.8828906E3,8.497338E1,-2.513438E2,4.678455E2,-3.885539E1,4.621509E2,3.117112E2,1.5293516E3,5.8373883E2],"categories":[],"categories_nodes":[],"categories_segments":[],"categories_sizes":[],"default_left":[1,1,1,1,0,1,1,1,1,1,0,1,0,0,0,0,0,0,0,0,0],"id":34,"left_children":[1,3,5,7,-1,9,11,13,15,17,-1,19,-1,-1,-1,-1,-1,-1,-1,-1,-1],"loss_changes":[8.1962E6,1.592384E6,9.977096E6,2.4980085E6,0E0,4.4185E4,4.195111E7,4.0456234E5,5.25607E5,9.831E3,0E0,7.026104E6,0E0,0E0,0E0,0E0,0E0,0E0,0E0,0E0,0E0],"parents":[2147483647,0,0,1,1,2,2,3,3,5,5,6,6,7,7,8,8,9,9,11,11],"right_children":[2,4,6,8,-1,10,12,14,16,18,-1,20,-1,-1,-1,-1,-1,-1,-1,-1,-1],"split_conditions":[2.0165E3,3.1E1,9.5E0,2.5E-1,4.4696167E1,3.15E1,2.9E1,2.015E3,5.2E1,2.0175E3,2.8078848E1,3.4E1,1.4414453E2,4.248669E0,-1.256719E1,2.3392275E1,-1.9427694E0,2.3107546E1,1.5585561E1,7.646758E1,2.9186941E1],"split_indices":[1,2,0,4,0,2,2,1,3,1,0,3,0,0,0,0,0,0,0,0,0],"split_type":[0,0,0,0,0,0,0,0,0,0,0,0,0,0,0,0,0,0,0,0,0],"sum_hessian":[1.68E2,6E1,1.08E2,5.5E1,5E0,3.5E1,7.3E1,1.3E1,4.2E1,3E1,5E0,6.3E1,1E1,8E0,5E0,4E1,2E0,7E0,2.3E1,9E0,5.4E1],"tree_param":{"num_deleted":"0","num_feature":"7","num_nodes":"21","size_leaf_vector":"0"}},{"base_weights":[6.618415E2,4.6958908E2,9.082339E2,1.0670402E3,3.292927E2,2.2073796E3,5.625488E2,5.1126877E2,1.4605305E3,2.5677557E2,7.6082965E2,5.680685E2,2.75185E3,7.8210077E2,3.5286127E2,5.3207397E-2,4.179721E2,8.918948E2,-9.963721E1,4.5412155E2,-7.365709E1],"categories":[],"categories_nodes":[],"categories_segments":[],"categories_sizes":[],"default_left":[1,1,1,1,1,1,1,0,0,1,0,0,0,1,1,0,0,0,0,0,0],"id":35,"left_children":[1,3,5,7,9,11,13,-1,-1,15,-1,-1,-1,17,19,-1,-1,-1,-1,-1,-1],"loss_changes":[7.57896E6,7.779192E6,3.1542196E7,3.189708E6,2.308143E6,1.1825112E7,2.440228E6,0E0,0E0,2.8967705E6,0E0,0E0,0E0,2.799534E6,1.4155092E6,0E0,0E0,0E0,0E0,0E0,0E0],"parents":[2147483647,0,0,1,1,2,2,3,3,4,4,5,5,6,6,9,9,13,13,14,14],"right_children":[2,4,6,8,10,12,14,-1,-1,16,-1,-1,-1,18,20,-1,-1,-1,-1,-1,-1],"split_conditions":[4.35E1,3.4E1,4.55E1,2.0175E3,3.1E1,2.016E3,2.495E1,2.5563438E1,7.302653E1,2.0175E3,3.8041485E1,2.8403425E1,1.3759251E2,4.95E1,2.25E1,2.66037E-3,2.0898605E1,4.4594738E1,-4.9818606E0,2.2706078E1,-3.6828544E0],"split_indices":[3,3,3,1,2,1,4,0,0,1,0,0,0,3,2,0,0,0,0,0,0],"split_type":[0,0,0,0,0,0,0,0,0,0,0,0,0,0,0,0,0,0,0,0,0],"sum_hessian":[1.68E2,9.6E1,7.2E1,1.7E1,7.9E1,1.4E1,5.8E1,8E0,9E0,6.9E1,1E1,4E0,1E1,2.7E1,3.1E1,2.7E1,4.2E1,2.4E1,3E0,2.5E1,6E0],"tree_param":{"num_deleted":"0","num_feature":"7","num_nodes":"21","size_leaf_vector":"0"}},{"base_weights":[6.3101074E2,4.4773367E2,8.6589935E2,1.01916565E3,3.1356482E2,2.1080767E3,5.354152E2,4.8854565E2,1.394807E3,2.4423535E2,7.2624646E2,5.4534576E2,2.6267656E3,7.4441046E2,3.3581268E2,5.0626483E-2,3.9755948E2,8.4908386E2,-9.590076E1,4.3228876E2,-7.050035E1],"categories":[],"categories_nodes":[],"categories_segments":[],"categories_sizes":[],"default_left":[1,1,1,1,1,1,1,0,0,1,0,0,0,1,1,0,0,0,0,0,0],"id":36,"left_children":[1,3,5,7,9,11,13,-1,-1,15,-1,-1,-1,17,19,-1,-1,-1,-1,-1,-1],"loss_changes":[6.887704E6,7.117258E6,2.8839252E7,2.906384E6,2.1115045E6,1.0726072E7,2.211262E6,0E0,0E0,2.620738E6,0E0,0E0,0E0,2.544259E6,1.2848602E6,0E0,0E0,0E0,0E0,0E0,0E0],"parents":[2147483647,0,0,1,1,2,2,3,3,4,4,5,5,6,6,9,9,13,13,14,14],"right_children":[2,4,6,8,10,12,14,-1,-1,16,-1,-1,-1,18,20,-1,-1,-1,-1,-1,-1],"split_conditions":[4.35E1,3.4E1,4.55E1,2.0175E3,3.1E1,2.016E3,2.495E1,2.4427282E1,6.974035E1,2.0175E3,3.6312325E1,2.7267288E1,1.3133829E2,4.95E1,2.25E1,2.5313243E-3,1.9877974E1,4.2454193E1,-4.7950377E0,2.1614439E1,-3.5250175E0],"split_indices":[3,3,3,1,2,1,4,0,0,1,0,0,0,3,2,0,0,0,0,0,0],"split_type":[0,0,0,0,0,0,0,0,0,0,0,0,0,0,0,0,0,0,0,0,0],"sum_hessian":[1.68E2,9.6E1,7.2E1,1.7E1,7.9E1,1.4E1,5.8E1,8E0,9E0,6.9E1,1E1,4E0,1E1,2.7E1,3.1E1,2.7E1,4.2E1,2.4E1,3E0,2.5E1,6E0],"tree_param":{"num_deleted":"0","num_feature":"7","num_nodes":"21","size_leaf_vector":"0"}},{"base_weights":[6.0161835E2,4.2689713E2,8.255408E2,9.7343884E2,2.9858902E2,2.0132471E3,5.0958936E2,4.6683255E2,1.3320406E3,2.323076E2,6.9323535E2,5.235319E2,2.507368E3,7.08535E2,3.195873E2,4.816546E-2,3.781438E2,8.083279E2,-9.2304565E1,4.115056E2,-6.74789E1],"categories":[],"categories_nodes":[],"categories_segments":[],"categories_sizes":[],"default_left":[1,1,1,1,1,1,1,0,0,1,0,0,0,1,1,0,0,0,0,0,0],"id":37,"left_children":[1,3,5,7,9,11,13,-1,-1,15,-1,-1,-1,17,19,-1,-1,-1,-1,-1,-1],"loss_changes":[6.259536E6,6.511538E6,2.6367872E7,2.648218E6,1.931574E6,9.7288E6,2.003766E6,0E0,0E0,2.3710102E6,0E0,0E0,0E0,2.31232E6,1.1662795E6,0E0,0E0,0E0,0E0,0E0,0E0],"parents":[2147483647,0,0,1,1,2,2,3,3,4,4,5,5,6,6,9,9,13,13,14,14],"right_children":[2,4,6,8,10,12,14,-1,-1,16,-1,-1,-1,18,20,-1,-1,-1,-1,-1,-1],"split_conditions":[4.35E1,3.4E1,4.55E1,2.0175E3,3.1E1,2.016E3,2.495E1,2.3341627E1,6.6602036E1,2.0175E3,3.466177E1,2.6176596E1,1.253684E2,4.95E1,2.25E1,2.408273E-3,1.890719E1,4.0416393E1,-4.615228E0,2.0575281E1,-3.373945E0],"split_indices":[3,3,3,1,2,1,4,0,0,1,0,0,0,3,2,0,0,0,0,0,0],"split_type":[0,0,0,0,0,0,0,0,0,0,0,0,0,0,0,0,0,0,0,0,0],"sum_hessian":[1.68E2,9.6E1,7.2E1,1.7E1,7.9E1,1.4E1,5.8E1,8E0,9E0,6.9E1,1E1,4E0,1E1,2.7E1,3.1E1,2.7E1,4.2E1,2.4E1,3E0,2.5E1,6E0],"tree_param":{"num_deleted":"0","num_feature":"7","num_nodes":"21","size_leaf_vector":"0"}},{"base_weights":[5.73597E2,4.0703177E2,7.870658E2,9.297638E2,2.8432916E2,1.9226877E3,4.8500827E2,4.460844E2,1.2720989E3,2.2096234E2,6.6172455E2,5.025907E2,2.3933967E3,6.743868E2,3.0414554E2,4.5826502E-2,3.596763E2,7.695281E2,-8.884314E1,3.9172177E2,-6.458698E1],"categories":[],"categories_nodes":[],"categories_segments":[],"categories_sizes":[],"default_left":[1,1,1,1,1,1,1,0,0,1,0,0,0,1,1,0,0,0,0,0,0],"id":38,"left_children":[1,3,5,7,9,11,13,-1,-1,15,-1,-1,-1,17,19,-1,-1,-1,-1,-1,-1],"loss_changes":[5.688684E6,5.957277E6,2.4108172E7,2.412984E6,1.766932E6,8.823888E6,1.815728E6,0E0,0E0,2.1450778E6,0E0,0E0,0E0,2.101578E6,1.0586505E6,0E0,0E0,0E0,0E0,0E0,0E0],"parents":[2147483647,0,0,1,1,2,2,3,3,4,4,5,5,6,6,9,9,13,13,14,14],"right_children":[2,4,6,8,10,12,14,-1,-1,16,-1,-1,-1,18,20,-1,-1,-1,-1,-1,-1],"split_conditions":[4.35E1,3.4E1,4.55E1,2.0175E3,3.1E1,2.016E3,2.495E1,2.230422E1,6.3604946E1,2.0175E3,3.3086227E1,2.5129536E1,1.1966984E2,4.95E1,2.25E1,2.2913252E-3,1.7983816E1,3.8476406E1,-4.4421573E0,1.9586088E1,-3.2293491E0],"split_indices":[3,3,3,1,2,1,4,0,0,1,0,0,0,3,2,0,0,0,0,0,0],"split_type":[0,0,0,0,0,0,0,0,0,0,0,0,0,0,0,0,0,0,0,0,0],"sum_hessian":[1.68E2,9.6E1,7.2E1,1.7E1,7.9E1,1.4E1,5.8E1,8E0,9E0,6.9E1,1E1,4E0,1E1,2.7E1,3.1E1,2.7E1,4.2E1,2.4E1,3E0,2.5E1,6E0],"tree_param":{"num_deleted":"0","num_feature":"7","num_nodes":"21","size_leaf_vector":"0"}},{"base_weights":[5.468826E2,2.6848602E2,6.649313E2,1.669801E2,6.3164624E2,4.9380762E2,2.2846057E3,-2.4087952E2,2.2860652E2,8.880483E2,4.103995E2,1.0690441E2,2.4871324E2,4.2625845E2,1.2148542E3,1.4551231E2,5.0853082E2],"categories":[],"categories_nodes":[],"categories_segments":[],"categories_sizes":[],"default_left":[1,1,1,1,0,1,0,0,1,1,1,0,0,0,0,0,0],"id":39,"left_children":[1,3,5,7,-1,9,-1,-1,11,13,15,-1,-1,-1,-1,-1,-1],"loss_changes":[5.375548E6,1.811399E6,3.1577264E7,1.1107336E6,0E0,3.186896E6,0E0,0E0,6.3951625E4,2.19864E6,2.291433E6,0E0,0E0,0E0,0E0,0E0,0E0],"parents":[2147483647,0,0,1,1,2,2,3,3,5,5,8,8,9,9,10,10],"right_children":[2,4,6,8,-1,10,-1,-1,12,14,16,-1,-1,-1,-1,-1,-1],"split_conditions":[9.5E0,3.1E1,2.95E1,3.95E1,3.1582312E1,3.4E1,1.14230286E2,-1.2043976E1,2.0155E3,2.0175E3,4.25E1,5.3452206E0,1.2435662E1,2.1312923E1,6.0742714E1,7.2756157E0,2.5426542E1],"split_indices":[0,2,2,3,0,3,0,0,1,1,3,0,0,0,0,0,0],"split_type":[0,0,0,0,0,0,0,0,0,0,0,0,0,0,0,0,0],"sum_hessian":[1.68E2,5.1E1,1.17E2,4.1E1,1E1,1.07E2,1E1,5E0,3.6E1,1.7E1,9E1,6E0,3E1,8E0,9E0,2.5E1,6.5E1],"tree_param":{"num_deleted":"0","num_feature":"7","num_nodes":"17","size_leaf_vector":"0"}},{"base_weights":[5.2111426E2,2.5577939E2,6.3362524E2,1.587677E2,6.02935E2,4.7017984E2,2.18076E3,-2.308429E2,2.1765677E2,8.482046E2,3.902389E2,1.023228E2,2.3667874E2,4.0731372E2,1.1601859E3,1.3851651E2,4.8348953E2],"categories":[],"categories_nodes":[],"categories_segments":[],"categories_sizes":[],"default_left":[1,1,1,1,0,1,0,0,1,1,1,0,0,0,0,0,0],"id":40,"left_children":[1,3,5,7,-1,9,-1,-1,11,13,15,-1,-1,-1,-1,-1,-1],"loss_changes":[4.883104E6,1.6555375E6,2.8813556E7,1.0138845E6,0E0,2.93272E6,0E0,0E0,5.6956E4,2.003335E6,2.069096E6,0E0,0E0,0E0,0E0,0E0,0E0],"parents":[2147483647,0,0,1,1,2,2,3,3,5,5,8,8,9,9,10,10],"right_children":[2,4,6,8,-1,10,-1,-1,12,14,16,-1,-1,-1,-1,-1,-1],"split_conditions":[9.5E0,3.1E1,2.95E1,3.95E1,3.014675E1,3.4E1,1.09038E2,-1.1542145E1,2.0155E3,2.0175E3,4.25E1,5.11614E0,1.1833938E1,2.0365686E1,5.8009296E1,6.9258256E0,2.4174477E1],"split_indices":[0,2,2,3,0,3,0,0,1,1,3,0,0,0,0,0,0],"split_type":[0,0,0,0,0,0,0,0,0,0,0,0,0,0,0,0,0],"sum_hessian":[1.68E2,5.1E1,1.17E2,4.1E1,1E1,1.07E2,1E1,5E0,3.6E1,1.7E1,9E1,6E0,3E1,8E0,9E0,2.5E1,6.5E1],"tree_param":{"num_deleted":"0","num_feature":"7","num_nodes":"17","size_leaf_vector":"0"}},{"base_weights":[4.9656186E2,2.4367413E2,6.037958E2,1.5095804E2,5.755289E2,4.4768448E2,2.0816343E3,-2.2122447E2,2.0723201E2,6.868174E2,3.6831885E2,8.101486E2,3.7106866E2,9.793754E1,2.252265E2,3.8921085E2,1.1079778E3,1.318571E2,4.5968127E2],"categories":[],"categories_nodes":[],"categories_segments":[],"categories_sizes":[],"default_left":[1,1,1,1,1,1,0,0,1,0,0,1,1,0,0,0,0,0,0],"id":41,"left_children":[1,3,5,7,9,11,-1,-1,13,-1,-1,15,17,-1,-1,-1,-1,-1,-1],"loss_changes":[4.435836E6,1.5130698E6,2.6291544E7,9.255007E5,6.935E2,2.698592E6,0E0,0E0,5.0709875E4,0E0,0E0,1.825379E6,1.86833E6,0E0,0E0,0E0,0E0,0E0,0E0],"parents":[2147483647,0,0,1,1,2,2,3,3,4,4,5,5,8,8,11,11,12,12],"right_children":[2,4,6,8,10,12,-1,-1,14,-1,-1,16,18,-1,-1,-1,-1,-1,-1],"split_conditions":[9.5E0,3.1E1,2.95E1,3.95E1,2.0175E3,3.4E1,1.0408172E2,-1.1061224E1,2.0155E3,3.434087E1,1.8415943E1,2.0175E3,4.25E1,4.896877E0,1.1261325E1,1.9460543E1,5.539889E1,6.592855E0,2.2984064E1],"split_indices":[0,2,2,3,1,3,0,0,1,0,0,1,3,0,0,0,0,0,0],"split_type":[0,0,0,0,0,0,0,0,0,0,0,0,0,0,0,0,0,0,0],"sum_hessian":[1.68E2,5.1E1,1.17E2,4.1E1,1E1,1.07E2,1E1,5E0,3.6E1,5E0,5E0,1.7E1,9E1,6E0,3E1,8E0,9E0,2.5E1,6.5E1],"tree_param":{"num_deleted":"0","num_feature":"7","num_nodes":"19","size_leaf_vector":"0"}},{"base_weights":[4.733099E2,2.32603E2,5.7537305E2,1.435315E2,5.5154846E2,4.2626724E2,1.9870143E3,-2.1200673E2,1.9730711E2,6.582E2,3.5297217E2,7.7380005E2,3.5284024E2,9.3740234E1,2.1432845E2,3.7191254E2,1.0581188E3,1.2551783E2,4.370454E2],"categories":[],"categories_nodes":[],"categories_segments":[],"categories_sizes":[],"default_left":[1,1,1,1,1,1,0,0,1,0,0,1,1,0,0,0,0,0,0],"id":42,"left_children":[1,3,5,7,9,11,-1,-1,13,-1,-1,15,17,-1,-1,-1,-1,-1,-1],"loss_changes":[4.01804E6,1.3981008E6,2.39901E7,8.4484056E5,6.37E2,2.482948E6,0E0,0E0,4.5134125E4,0E0,0E0,1.663227E6,1.68704E6,0E0,0E0,0E0,0E0,0E0,0E0],"parents":[2147483647,0,0,1,1,2,2,3,3,4,4,5,5,8,8,11,11,12,12],"right_children":[2,4,6,8,10,12,-1,-1,14,-1,-1,16,18,-1,-1,-1,-1,-1,-1],"split_conditions":[9.5E0,3.1E1,2.95E1,3.95E1,2.0175E3,3.4E1,9.9350716E1,-1.0600337E1,2.0155E3,3.291E1,1.764861E1,2.0175E3,4.25E1,4.6870117E0,1.0716422E1,1.8595627E1,5.290594E1,6.275892E0,2.185227E1],"split_indices":[0,2,2,3,1,3,0,0,1,0,0,1,3,0,0,0,0,0,0],"split_type":[0,0,0,0,0,0,0,0,0,0,0,0,0,0,0,0,0,0,0],"sum_hessian":[1.68E2,5.1E1,1.17E2,4.1E1,1E1,1.07E2,1E1,5E0,3.6E1,5E0,5E0,1.7E1,9E1,6E0,3E1,8E0,9E0,2.5E1,6.5E1],"tree_param":{"num_deleted":"0","num_feature":"7","num_nodes":"19","size_leaf_vector":"0"}},{"base_weights":[4.511494E2,2.2203752E2,5.482907E2,1.364693E2,5.285673E2,4.0587637E2,1.8966957E3,-2.0317311E2,1.878581E2,6.307751E2,3.3826498E2,7.390824E2,3.3550732E2,8.972279E1,2.0395773E2,3.5538315E2,1.01050354E3,1.1948331E2,4.1552423E2],"categories":[],"categories_nodes":[],"categories_segments":[],"categories_sizes":[],"default_left":[1,1,1,1,1,1,0,0,1,0,0,1,1,0,0,0,0,0,0],"id":43,"left_children":[1,3,5,7,9,11,-1,-1,13,-1,-1,15,17,-1,-1,-1,-1,-1,-1],"loss_changes":[3.63956E6,1.2917855E6,2.1889972E7,7.712278E5,5.8475E2,2.28435E6,0E0,0E0,4.015825E4,0E0,0E0,1.515478E6,1.523339E6,0E0,0E0,0E0,0E0,0E0,0E0],"parents":[2147483647,0,0,1,1,2,2,3,3,4,4,5,5,8,8,11,11,12,12],"right_children":[2,4,6,8,10,12,-1,-1,14,-1,-1,16,18,-1,-1,-1,-1,-1,-1],"split_conditions":[9.5E0,3.1E1,2.95E1,3.95E1,2.0175E3,3.4E1,9.4834785E1,-1.0158656E1,2.0155E3,3.1538755E1,1.691325E1,2.0175E3,4.25E1,4.48614E0,1.0197886E1,1.7769157E1,5.0525177E1,5.9741654E0,2.0776213E1],"split_indices":[0,2,2,3,1,3,0,0,1,0,0,1,3,0,0,0,0,0,0],"split_type":[0,0,0,0,0,0,0,0,0,0,0,0,0,0,0,0,0,0,0],"sum_hessian":[1.68E2,5.1E1,1.17E2,4.1E1,1E1,1.07E2,1E1,5E0,3.6E1,5E0,5E0,1.7E1,9E1,6E0,3E1,8E0,9E0,2.5E1,6.5E1],"tree_param":{"num_deleted":"0","num_feature":"7","num_nodes":"19","size_leaf_vector":"0"}},{"base_weights":[4.30029E2,2.3425137E2,5.356474E2,1.9039958E2,6.0449286E2,2.2116045E2,6.814025E2,-6.0605656E1,2.676943E2,1.9408879E2,3.2417056E2,4.7669507E2,1.8104822E3,-1.66666E2,6.9264114E1,1.8617577E2,4.8791412E2,2.4734311E2,1.6825032E2,6.5756506E2,1.8705566E2],"categories":[],"categories_nodes":[],"categories_segments":[],"categories_sizes":[],"default_left":[1,1,1,1,0,1,1,1,1,1,0,1,0,0,0,0,0,0,0,0,0],"id":44,"left_children":[1,3,5,7,-1,9,11,13,15,17,-1,19,-1,-1,-1,-1,-1,-1,-1,-1,-1],"loss_changes":[3.369056E6,8.752855E5,4.845654E6,1.1027012E6,0E0,3.7473625E4,1.6240648E7,2.0438044E5,6.8109825E5,1.04075E3,0E0,3.229772E6,0E0,0E0,0E0,0E0,0E0,0E0,0E0,0E0,0E0],"parents":[2147483647,0,0,1,1,2,2,3,3,5,5,6,6,7,7,8,8,9,9,11,11],"right_children":[2,4,6,8,-1,10,12,14,16,18,-1,20,-1,-1,-1,-1,-1,-1,-1,-1,-1],"split_conditions":[2.0165E3,3.1E1,9.5E0,2.5E-1,3.0224644E1,3.15E1,2.9E1,4.05E1,2.7E1,2.0175E3,1.6208529E1,2.0195E3,9.052411E1,-8.333301E0,3.4632058E0,9.308788E0,2.4395706E1,1.2367156E1,8.412517E0,3.2878254E1,9.352783E0],"split_indices":[1,2,0,4,0,2,2,3,2,1,0,1,0,0,0,0,0,0,0,0,0],"split_type":[0,0,0,0,0,0,0,0,0,0,0,0,0,0,0,0,0,0,0,0,0],"sum_hessian":[1.68E2,6E1,1.08E2,5.5E1,5E0,3.5E1,7.3E1,1.3E1,4.2E1,3E1,5E0,6.3E1,1E1,7E0,6E0,3.2E1,1E1,7E0,2.3E1,3.8E1,2.5E1],"tree_param":{"num_deleted":"0","num_feature":"7","num_nodes":"21","size_leaf_vector":"0"}},{"base_weights":[4.0988135E2,2.2350694E2,5.1042224E2,1.8139445E2,5.7930566E2,2.1112987E2,6.4912634E2,-5.7923252E1,2.5509337E2,1.8505467E2,3.1066342E2,4.5352017E2,1.7281871E3,-1.5937439E2,6.6295654E1,1.77149E2,4.6573618E2,2.3652182E2,1.6018834E2,6.2552985E2,1.7806259E2],"categories":[],"categories_nodes":[],"categories_segments":[],"categories_sizes":[],"default_left":[1,1,1,1,0,1,1,1,1,1,0,1,0,0,0,0,0,0,0,0,0],"id":45,"left_children":[1,3,5,7,-1,9,11,13,15,17,-1,19,-1,-1,-1,-1,-1,-1,-1,-1,-1],"loss_changes":[3.05268E6,8.08915E5,4.387878E6,1.0024734E6,0E0,3.5943125E4,1.483548E7,1.869959E5,6.234875E5,1.78575E3,0E0,2.921023E6,0E0,0E0,0E0,0E0,0E0,0E0,0E0,0E0,0E0],"parents":[2147483647,0,0,1,1,2,2,3,3,5,5,6,6,7,7,8,8,9,9,11,11],"right_children":[2,4,6,8,-1,10,12,14,16,18,-1,20,-1,-1,-1,-1,-1,-1,-1,-1,-1],"split_conditions":[2.0165E3,3.1E1,9.5E0,2.5E-1,2.8965284E1,3.15E1,2.9E1,4.05E1,2.7E1,2.0175E3,1.5533172E1,2.0195E3,8.6409355E1,-7.9687195E0,3.3147829E0,8.8574505E0,2.328681E1,1.1826091E1,8.009418E0,3.1276493E1,8.90313E0],"split_indices":[1,2,0,4,0,2,2,3,2,1,0,1,0,0,0,0,0,0,0,0,0],"split_type":[0,0,0,0,0,0,0,0,0,0,0,0,0,0,0,0,0,0,0,0,0],"sum_hessian":[1.68E2,6E1,1.08E2,5.5E1,5E0,3.5E1,7.3E1,1.3E1,4.2E1,3E1,5E0,6.3E1,1E1,7E0,6E0,3.2E1,1E1,7E0,2.3E1,3.8E1,2.5E1],"tree_param":{"num_deleted":"0","num_feature":"7","num_nodes":"21","size_leaf_vector":"0"}},{"base_weights":[3.906797E2,2.132571E2,4.8638702E2,1.7281564E2,5.551678E2,2.0155583E2,6.1838074E2,-5.53595E1,2.4308626E2,1.7644179E2,2.977191E2,4.31472E2,1.6496333E3,-1.5240175E2,6.3454426E1,1.6856E2,4.4456628E2,2.2617403E2,1.5251263E2,5.950553E2,1.6950195E2],"categories":[],"categories_nodes":[],"categories_segments":[],"categories_sizes":[],"default_left":[1,1,1,1,0,1,1,1,1,1,0,1,0,0,0,0,0,0,0,0,0],"id":46,"left_children":[1,3,5,7,-1,9,11,13,15,17,-1,19,-1,-1,-1,-1,-1,-1,-1,-1,-1],"loss_changes":[2.766004E6,7.4752775E5,3.973318E6,9.113615E5,0E0,3.4411625E4,1.3551742E7,1.7109016E5,5.7073275E5,2.3971875E3,0E0,2.641788E6,0E0,0E0,0E0,0E0,0E0,0E0,0E0,0E0,0E0],"parents":[2147483647,0,0,1,1,2,2,3,3,5,5,6,6,7,7,8,8,9,9,11,11],"right_children":[2,4,6,8,-1,10,12,14,16,18,-1,20,-1,-1,-1,-1,-1,-1,-1,-1,-1],"split_conditions":[2.0165E3,3.1E1,9.5E0,2.5E-1,2.775839E1,3.15E1,2.9E1,4.05E1,2.7E1,2.0175E3,1.4885955E1,2.0195E3,8.248167E1,-7.6200876E0,3.1727214E0,8.428E0,2.2228315E1,1.13087015E1,7.625632E0,2.9752766E1,8.475098E0],"split_indices":[1,2,0,4,0,2,2,3,2,1,0,1,0,0,0,0,0,0,0,0,0],"split_type":[0,0,0,0,0,0,0,0,0,0,0,0,0,0,0,0,0,0,0,0,0],"sum_hessian":[1.68E2,6E1,1.08E2,5.5E1,5E0,3.5E1,7.3E1,1.3E1,4.2E1,3E1,5E0,6.3E1,1E1,7E0,6E0,3.2E1,1E1,7E0,2.3E1,3.8E1,2.5E1],"tree_param":{"num_deleted":"0","num_feature":"7","num_nodes":"21","size_leaf_vector":"0"}},{"base_weights":[3.7237943E2,2.0347897E2,4.6348538E2,1.646429E2,5.3203595E2,1.9241747E2,5.8909296E2,-5.2909184E1,2.316449E2,1.6823045E2,2.8531412E2,4.104957E2,1.5746503E3,-1.4573415E2,6.0734943E1,1.603874E2,4.2435876E2,2.162789E2,1.452047E2,8.805137E2,3.1757434E2],"categories":[],"categories_nodes":[],"categories_segments":[],"categories_sizes":[],"default_left":[1,1,1,1,0,1,1,1,1,1,0,1,0,0,0,0,0,0,0,0,0],"id":47,"left_children":[1,3,5,7,-1,9,11,13,15,17,-1,19,-1,-1,-1,-1,-1,-1,-1,-1,-1],"loss_changes":[2.506236E6,6.90756E5,3.5979E6,8.28536E5,0E0,3.2889625E4,1.2378928E7,1.5653731E5,5.224275E5,2.8921875E3,0E0,2.515554E6,0E0,0E0,0E0,0E0,0E0,0E0,0E0,0E0,0E0],"parents":[2147483647,0,0,1,1,2,2,3,3,5,5,6,6,7,7,8,8,9,9,11,11],"right_children":[2,4,6,8,-1,10,12,14,16,18,-1,20,-1,-1,-1,-1,-1,-1,-1,-1,-1],"split_conditions":[2.0165E3,3.1E1,9.5E0,2.5E-1,2.6601797E1,3.15E1,2.9E1,4.05E1,2.7E1,2.0175E3,1.4265706E1,3.4E1,7.873251E1,-7.2867074E0,3.0367472E0,8.01937E0,2.121794E1,1.0813945E1,7.260235E0,4.4025684E1,1.5878717E1],"split_indices":[1,2,0,4,0,2,2,3,2,1,0,3,0,0,0,0,0,0,0,0,0],"split_type":[0,0,0,0,0,0,0,0,0,0,0,0,0,0,0,0,0,0,0,0,0],"sum_hessian":[1.68E2,6E1,1.08E2,5.5E1,5E0,3.5E1,7.3E1,1.3E1,4.2E1,3E1,5E0,6.3E1,1E1,7E0,6E0,3.2E1,1E1,7E0,2.3E1,9E0,5.4E1],"tree_param":{"num_deleted":"0","num_feature":"7","num_nodes":"21","size_leaf_vector":"0"}},{"base_weights":[3.5507742E2,1.9415076E2,4.418797E2,1.5685696E2,5.0986783E2,1.8369493E2,5.615118E2,-5.0567284E1,2.207426E2,1.6040196E2,2.7342612E2,3.909069E2,1.5030753E3,3.3806553E1,-1.6870015E2,1.5261105E2,4.050697E2,2.0681668E2,1.3824698E2,5.440983E2,1.4608484E2],"categories":[],"categories_nodes":[],"categories_segments":[],"categories_sizes":[],"default_left":[1,1,1,1,0,1,1,1,1,1,0,1,0,0,0,0,0,0,0,0,0],"id":48,"left_children":[1,3,5,7,-1,9,11,13,15,17,-1,19,-1,-1,-1,-1,-1,-1,-1,-1,-1],"loss_changes":[2.274936E6,6.3825525E5,3.263556E6,7.532424E5,0E0,3.1385625E4,1.1299448E7,1.452457E5,4.7819688E5,3.2860625E3,0E0,2.320813E6,0E0,0E0,0E0,0E0,0E0,0E0,0E0,0E0,0E0],"parents":[2147483647,0,0,1,1,2,2,3,3,5,5,6,6,7,7,8,8,9,9,11,11],"right_children":[2,4,6,8,-1,10,12,14,16,18,-1,20,-1,-1,-1,-1,-1,-1,-1,-1,-1],"split_conditions":[2.0165E3,3.1E1,9.5E0,2.5E-1,2.5493391E1,3.15E1,2.9E1,2.015E3,2.7E1,2.0175E3,1.3671306E1,2.0195E3,7.515377E1,1.6903276E0,-8.435008E0,7.630553E0,2.0253485E1,1.0340835E1,6.912349E0,2.7204916E1,7.304242E0],"split_indices":[1,2,0,4,0,2,2,1,2,1,0,1,0,0,0,0,0,0,0,0,0],"split_type":[0,0,0,0,0,0,0,0,0,0,0,0,0,0,0,0,0,0,0,0,0],"sum_hessian":[1.68E2,6E1,1.08E2,5.5E1,5E0,3.5E1,7.3E1,1.3E1,4.2E1,3E1,5E0,6.3E1,1E1,8E0,5E0,3.2E1,1E1,7E0,2.3E1,3.8E1,2.5E1],"tree_param":{"num_deleted":"0","num_feature":"7","num_nodes":"21","size_leaf_vector":"0"}},{"base_weights":[3.384314E2,1.852077E2,4.210756E2,1.4939162E2,4.886232E2,1.7536917E2,5.349182E2,3.6262717E2,8.9209E1,1.5293842E2,2.620332E2,3.7190082E2,1.434754E3,1.3825342E2,-1.9678264E2,1.9776846E2,1.3162263E2,8.164059E2,2.843199E2],"categories":[],"categories_nodes":[],"categories_segments":[],"categories_sizes":[],"default_left":[1,1,1,1,0,1,1,0,1,1,0,1,0,0,0,0,0,0,0],"id":49,"left_children":[1,3,5,7,-1,9,11,-1,13,15,-1,17,-1,-1,-1,-1,-1,-1,-1],"loss_changes":[2.062068E6,5.899005E5,2.955124E6,6.863025E5,0E0,2.9907E4,1.0321394E7,0E0,6.583891E5,3.592375E3,0E0,2.25941E6,0E0,0E0,0E0,0E0,0E0,0E0,0E0],"parents":[2147483647,0,0,1,1,2,2,3,3,5,5,6,6,8,8,9,9,11,11],"right_children":[2,4,6,8,-1,10,12,-1,14,16,-1,18,-1,-1,-1,-1,-1,-1,-1],"split_conditions":[2.0165E3,3.1E1,9.5E0,2.2E1,2.443116E1,3.15E1,2.9E1,1.813136E1,2.495E1,2.0175E3,1.3101661E1,3.4E1,7.17377E1,6.912671E0,-9.839132E0,9.888423E0,6.581132E0,4.0820293E1,1.4215995E1],"split_indices":[1,2,0,2,0,2,2,0,4,1,0,3,0,0,0,0,0,0,0],"split_type":[0,0,0,0,0,0,0,0,0,0,0,0,0,0,0,0,0,0,0],"sum_hessian":[1.68E2,6E1,1.08E2,5.5E1,5E0,3.5E1,7.3E1,1.1E1,4.4E1,3E1,5E0,6.3E1,1E1,3.8E1,6E0,7E0,2.3E1,9E0,5.4E1],"tree_param":{"num_deleted":"0","num_feature":"7","num_nodes":"19","size_leaf_vector":"0"}},{"base_weights":[3.226695E2,1.5782861E2,3.9257675E2,9.263839E1,3.9238867E2,2.8943643E2,1.3695383E3,-1.6743153E2,1.3230815E2,4.68264E2,2.5111523E2,5.8109534E2,2.2856505E2,5.3556538E1,1.4582277E2,2.958933E2,7.796676E2,2.812244E1,3.0406418E2],"categories":[],"categories_nodes":[],"categories_segments":[],"categories_sizes":[],"default_left":[1,1,1,1,1,1,0,0,1,0,0,1,1,0,0,0,0,0,0],"id":50,"left_children":[1,3,5,7,9,11,-1,-1,13,-1,-1,15,17,-1,-1,-1,-1,-1,-1],"loss_changes":[1.885524E6,7.58783E5,1.1493772E7,4.554629E5,3.225E2,1.784579E6,0E0,0E0,3.156925E4,0E0,0E0,7.88699E5,1.368574E6,0E0,0E0,0E0,0E0,0E0,0E0],"parents":[2147483647,0,0,1,1,2,2,3,3,4,4,5,5,8,8,11,11,12,12],"right_children":[2,4,6,8,10,12,-1,-1,14,-1,-1,16,18,-1,-1,-1,-1,-1,-1],"split_conditions":[9.5E0,3.1E1,2.95E1,3.95E1,2.0175E3,3.4E1,6.847692E1,-8.371577E0,2.0155E3,2.34132E1,1.2555762E1,2.0175E3,4.25E1,2.677827E0,7.2911386E0,1.4794665E1,3.898338E1,1.4061221E0,1.5203209E1],"split_indices":[0,2,2,3,1,3,0,0,1,0,0,1,3,0,0,0,0,0,0],"split_type":[0,0,0,0,0,0,0,0,0,0,0,0,0,0,0,0,0,0,0],"sum_hessian":[1.68E2,5.1E1,1.17E2,4.1E1,1E1,1.07E2,1E1,5E0,3.6E1,5E0,5E0,1.7E1,9E1,6E0,3E1,8E0,9E0,2.5E1,6.5E1],"tree_param":{"num_deleted":"0","num_feature":"7","num_nodes":"19","size_leaf_vector":"0"}},{"base_weights":[3.0758005E2,3.6991553E2,1.2759075E2,2.4164299E2,7.061261E2,-1.9813945E2,1.7326051E2,5.5502814E2,1.6320865E2,1.2138961E3,4.1050143E2,4.6391342E2,8.61E1,2.8274252E2,7.445824E2,1.1192146E2,4.8538324E2,9.3298584E1,1.307287E3,5.1836096E2,-2.3142151E2,1.6018704E2,-2.0138048E2],"categories":[],"categories_nodes":[],"categories_segments":[],"categories_sizes":[],"default_left":[1,1,1,1,1,0,1,1,1,1,1,0,1,0,0,0,0,0,0,0,0,0,0],"id":51,"left_children":[1,3,5,7,9,-1,11,13,15,17,19,-1,21,-1,-1,-1,-1,-1,-1,-1,-1,-1,-1],"loss_changes":[1.848936E6,5.220192E6,7.037507E5,2.170789E6,4.60541E6,0E0,9.7339525E5,7.185075E5,1.1849322E6,1.133874E6,1.7124225E6,0E0,7.138131E5,0E0,0E0,0E0,0E0,0E0,0E0,0E0,0E0,0E0,0E0],"parents":[2147483647,0,0,1,1,2,2,3,3,4,4,6,6,7,7,8,8,9,9,10,10,12,12],"right_children":[2,4,6,8,10,-1,12,14,16,18,20,-1,22,-1,-1,-1,-1,-1,-1,-1,-1,-1,-1],"split_conditions":[1.105E1,4.4E1,4.35E1,3.4E1,4.55E1,-9.906973E0,2.495E1,2.0175E3,5.85E0,2.016E3,4.95E1,2.3195671E1,2.25E1,1.4137126E1,3.7229122E1,5.596073E0,2.4269163E1,4.6649294E0,6.536435E1,2.5918049E1,-1.1571075E1,8.009353E0,-1.0069024E1],"split_indices":[4,3,3,3,3,0,4,1,4,1,3,0,2,0,0,0,0,0,0,0,0,0,0],"split_type":[0,0,0,0,0,0,0,0,0,0,0,0,0,0,0,0,0,0,0,0,0,0,0],"sum_hessian":[1.68E2,1.24E2,4.4E1,9.1E1,3.3E1,5E0,3.9E1,1.7E1,7.4E1,1.1E1,2.2E1,8E0,3.1E1,8E0,9E0,6.5E1,9E0,1E0,1E1,1.9E1,3E0,2.5E1,6E0],"tree_param":{"num_deleted":"0","num_feature":"7","num_nodes":"23","size_leaf_vector":"0"}},{"base_weights":[2.932474E2,3.5274463E2,1.214608E2,2.3044377E2,6.7330145E2,3.2093216E2,4.7486767E1,5.3013043E2,1.554464E2,1.1590371E3,3.906002E2,-3.2525482E1,4.262982E2,2.701762E2,7.110762E2,1.0641013E2,4.6354108E2,9.0966125E1,1.2478649E3,4.9373886E2,-2.2274323E2,-2.0737927E2,8.585068E1],"categories":[],"categories_nodes":[],"categories_segments":[],"categories_sizes":[],"default_left":[1,1,1,1,1,0,1,1,1,1,1,1,0,0,0,0,0,0,0,0,0,0,0],"id":52,"left_children":[1,3,5,7,9,-1,11,13,15,17,19,21,-1,-1,-1,-1,-1,-1,-1,-1,-1,-1,-1],"loss_changes":[1.684475E6,4.745388E6,6.487665E5,1.985359E6,4.216096E6,0E0,1.0443904E6,6.545605E5,1.0837605E6,1.024978E6,1.5649435E6,6.1806075E5,0E0,0E0,0E0,0E0,0E0,0E0,0E0,0E0,0E0,0E0,0E0],"parents":[2147483647,0,0,1,1,2,2,3,3,4,4,6,6,7,7,8,8,9,9,10,10,11,11],"right_children":[2,4,6,8,10,-1,12,14,16,18,20,22,-1,-1,-1,-1,-1,-1,-1,-1,-1,-1,-1],"split_conditions":[1.105E1,4.4E1,2.15E1,3.4E1,4.55E1,1.6046608E1,2.7E1,2.0175E3,5.85E0,2.016E3,4.95E1,2.0165E3,2.1314909E1,1.3508811E1,3.555381E1,5.3205066E0,2.3177053E1,4.5483065E0,6.2393246E1,2.4686943E1,-1.1137161E1,-1.0368964E1,4.292534E0],"split_indices":[4,3,2,3,3,0,2,1,4,1,3,1,0,0,0,0,0,0,0,0,0,0,0],"split_type":[0,0,0,0,0,0,0,0,0,0,0,0,0,0,0,0,0,0,0,0,0,0,0],"sum_hessian":[1.68E2,1.24E2,4.4E1,9.1E1,3.3E1,1.1E1,3.3E1,1.7E1,7.4E1,1.1E1,2.2E1,2.8E1,5E0,8E0,9E0,6.5E1,9E0,1E0,1E1,1.9E1,3E0,1.1E1,1.7E1],"tree_param":{"num_deleted":"0","num_feature":"7","num_nodes":"23","size_leaf_vector":"0"}},{"base_weights":[2.7970538E2,3.363718E2,1.1608302E2,2.1976465E2,6.4200366E2,3.0622272E2,4.5560688E1,5.0634982E2,1.4805402E2,1.1066635E3,3.7165927E2,-3.1108656E1,4.0853574E2,2.581684E2,6.790781E2,1.011702E2,4.426818E2,8.8691956E1,1.1911434E3,4.7028622E2,-2.1439032E2,-1.9787434E2,8.179672E1],"categories":[],"categories_nodes":[],"categories_segments":[],"categories_sizes":[],"default_left":[1,1,1,1,1,0,1,1,1,1,1,1,0,0,0,0,0,0,0,0,0,0,0],"id":53,"left_children":[1,3,5,7,9,-1,11,13,15,17,19,21,-1,-1,-1,-1,-1,-1,-1,-1,-1,-1,-1],"loss_changes":[1.527902E6,4.313769E6,5.8945756E5,1.815744E6,3.859717E6,0E0,9.5889694E5,5.96307E5,9.9120925E5,9.26334E5,1.4302318E6,5.6221906E5,0E0,0E0,0E0,0E0,0E0,0E0,0E0,0E0,0E0,0E0,0E0],"parents":[2147483647,0,0,1,1,2,2,3,3,4,4,6,6,7,7,8,8,9,9,10,10,11,11],"right_children":[2,4,6,8,10,-1,12,14,16,18,20,22,-1,-1,-1,-1,-1,-1,-1,-1,-1,-1,-1],"split_conditions":[1.105E1,4.4E1,2.15E1,3.4E1,4.55E1,1.5311136E1,2.7E1,2.0175E3,5.85E0,2.016E3,4.95E1,2.0165E3,2.0426786E1,1.290842E1,3.3953907E1,5.05851E0,2.213409E1,4.434598E0,5.955717E1,2.351431E1,-1.0719516E1,-9.893718E0,4.089836E0],"split_indices":[4,3,2,3,3,0,2,1,4,1,3,1,0,0,0,0,0,0,0,0,0,0,0],"split_type":[0,0,0,0,0,0,0,0,0,0,0,0,0,0,0,0,0,0,0,0,0,0,0],"sum_hessian":[1.68E2,1.24E2,4.4E1,9.1E1,3.3E1,1.1E1,3.3E1,1.7E1,7.4E1,1.1E1,2.2E1,2.8E1,5E0,8E0,9E0,6.5E1,9E0,1E0,1E1,1.9E1,3E0,1.1E1,1.7E1],"tree_param":{"num_deleted":"0","num_feature":"7","num_nodes":"23","size_leaf_vector":"0"}},{"base_weights":[2.6678973E2,3.2075986E2,1.10944084E2,2.0958131E2,6.121618E2,6.608508E1,3.9151343E2,4.8363553E2,1.4101389E2,1.0566626E3,3.5363257E2,1.692781E2,-1.8880513E2,2.4669423E2,6.4851917E2,9.6188324E1,4.2276117E2,8.647467E1,1.1370001E3,4.479476E2,-2.0635071E2,2.6104373E2,-3.1180958E1],"categories":[],"categories_nodes":[],"categories_segments":[],"categories_sizes":[],"default_left":[1,1,1,1,1,1,0,1,1,1,1,1,0,0,0,0,0,0,0,0,0,0,0],"id":54,"left_children":[1,3,5,7,9,11,-1,13,15,17,19,21,-1,-1,-1,-1,-1,-1,-1,-1,-1,-1,-1],"loss_changes":[1.385874E6,3.921408E6,5.4049956E5,1.6605908E6,3.533488E6,1.0840762E6,0E0,5.432335E5,9.0654625E5,8.36989E5,1.3071758E6,5.416018E5,0E0,0E0,0E0,0E0,0E0,0E0,0E0,0E0,0E0,0E0,0E0],"parents":[2147483647,0,0,1,1,2,2,3,3,4,4,5,5,7,7,8,8,9,9,10,10,11,11],"right_children":[2,4,6,8,10,12,-1,14,16,18,20,22,-1,-1,-1,-1,-1,-1,-1,-1,-1,-1,-1],"split_conditions":[1.105E1,4.4E1,2.7E1,3.4E1,4.55E1,2.25E1,1.9575672E1,2.0175E3,5.85E0,2.016E3,4.95E1,2.02E3,-9.440257E0,1.2334712E1,3.242596E1,4.8094163E0,2.113806E1,4.323734E0,5.6850006E1,2.239738E1,-1.0317535E1,1.3052187E1,-1.5590479E0],"split_indices":[4,3,2,3,3,2,0,1,4,1,3,1,0,0,0,0,0,0,0,0,0,0,0],"split_type":[0,0,0,0,0,0,0,0,0,0,0,0,0,0,0,0,0,0,0,0,0,0,0],"sum_hessian":[1.68E2,1.24E2,4.4E1,9.1E1,3.3E1,3.9E1,5E0,1.7E1,7.4E1,1.1E1,2.2E1,2.8E1,1.1E1,8E0,9E0,6.5E1,9E0,1E0,1E1,1.9E1,3E0,1.9E1,9E0],"tree_param":{"num_deleted":"0","num_feature":"7","num_nodes":"23","size_leaf_vector":"0"}},{"base_weights":[2.5443011E2,2.956033E2,6.8919815E1,1.7935394E2,5.570458E2,-8.126085E1,1.7595189E2,4.6194055E2,1.1353003E2,8.9371796E2,3.567912E2,-1.679747E2,-2.9777832E1,-1.1038599E2,2.1613199E2,2.3573004E2,6.1933594E2,1.5147095E2,-1.6720348E2,2.934526E2,1.0853187E3,4.3138412E2,-1.9861249E2],"categories":[],"categories_nodes":[],"categories_segments":[],"categories_sizes":[],"default_left":[1,1,1,1,1,1,1,1,1,1,1,0,0,0,0,0,0,0,0,0,0,0,0],"id":55,"left_children":[1,3,5,7,9,11,13,15,17,19,21,-1,-1,-1,-1,-1,-1,-1,-1,-1,-1,-1,-1],"loss_changes":[1.270457E6,4.09426E6,5.2867075E5,1.7518485E6,2.512775E6,5.749815E4,2.4245456E5,4.94885E5,8.7742944E5,1.40668E6,1.2456958E6,0E0,0E0,0E0,0E0,0E0,0E0,0E0,0E0,0E0,0E0,0E0,0E0],"parents":[2147483647,0,0,1,1,2,2,3,3,4,4,5,5,6,6,7,7,8,8,9,9,10,10],"right_children":[2,4,6,8,10,12,14,16,18,20,22,-1,-1,-1,-1,-1,-1,-1,-1,-1,-1,-1,-1],"split_conditions":[2.495E1,4.35E1,4.95E1,3.4E1,4.55E1,2.0185E3,2.013E3,2.0175E3,6.65E0,2.016E3,4.95E1,-8.398735E0,-1.4888916E0,-5.5192995E0,1.08066E1,1.1786502E1,3.0966797E1,7.5735474E0,-8.360174E0,1.467263E1,5.4265938E1,2.1569206E1,-9.930625E0],"split_indices":[4,3,3,3,3,1,1,1,4,1,3,0,0,0,0,0,0,0,0,0,0,0,0],"split_type":[0,0,0,0,0,0,0,0,0,0,0,0,0,0,0,0,0,0,0,0,0,0,0],"sum_hessian":[1.68E2,1.37E2,3.1E1,9.6E1,4.1E1,1.3E1,1.8E1,1.7E1,7.9E1,1.4E1,2.7E1,4E0,9E0,2E0,1.6E1,8E0,9E0,7E1,9E0,4E0,1E1,2.4E1,3E0],"tree_param":{"num_deleted":"0","num_feature":"7","num_nodes":"23","size_leaf_vector":"0"}},{"base_weights":[2.4240656E2,1.10768135E2,2.983624E2,4.5406963E1,3.5025916E2,2.2047142E2,1.0359863E3,-1.8408691E2,8.139497E1,4.2512125E2,2.1702051E2,4.412188E2,1.7438434E2,5.0632233E1,1.07873764E2,2.2525313E2,5.91466E2,-8.804659E0,2.4390753E2],"categories":[],"categories_nodes":[],"categories_segments":[],"categories_sizes":[],"default_left":[1,1,1,1,1,1,0,0,1,0,0,1,1,0,0,0,0,0,0],"id":56,"left_children":[1,3,5,7,9,11,-1,-1,13,-1,-1,15,17,-1,-1,-1,-1,-1,-1],"loss_changes":[1.211795E6,7.980732E5,6.551195E6,3.618629E5,1.745975E4,1.0218075E6,0E0,0E0,2.4676812E4,0E0,0E0,4.5083875E5,1.1611125E6,0E0,0E0,0E0,0E0,0E0,0E0],"parents":[2147483647,0,0,1,1,2,2,3,3,4,4,5,5,8,8,11,11,12,12],"right_children":[2,4,6,8,10,12,-1,-1,14,-1,-1,16,18,-1,-1,-1,-1,-1,-1],"split_conditions":[9.5E0,3.1E1,2.95E1,3.95E1,2.0175E3,3.4E1,5.1799316E1,-9.204346E0,2.0185E3,2.1256063E1,1.0851026E1,2.0175E3,4.25E1,2.5316117E0,5.393688E0,1.1262656E1,2.9573301E1,-4.4023296E-1,1.2195376E1],"split_indices":[0,2,2,3,1,3,0,0,1,0,0,1,3,0,0,0,0,0,0],"split_type":[0,0,0,0,0,0,0,0,0,0,0,0,0,0,0,0,0,0,0],"sum_hessian":[1.68E2,5.1E1,1.17E2,4.1E1,1E1,1.07E2,1E1,5E0,3.6E1,5E0,5E0,1.7E1,9E1,1.8E1,1.8E1,8E0,9E0,2.5E1,6.5E1],"tree_param":{"num_deleted":"0","num_feature":"7","num_nodes":"19","size_leaf_vector":"0"}},{"base_weights":[2.310863E2,2.7058752E2,5.3515846E1,1.6353378E2,5.1138812E2,-8.922823E1,1.5587907E2,4.2142648E2,1.0346375E2,8.1584283E2,3.3002353E2,-1.7101212E2,-3.9413475E1,-1.14836754E2,1.944831E2,2.1524185E2,5.6485E2,1.3990295E2,-1.6560097E2,2.7195825E2,9.8889557E2,4.016761E2,-2.0031097E2],"categories":[],"categories_nodes":[],"categories_segments":[],"categories_sizes":[],"default_left":[1,1,1,1,1,1,1,1,1,1,1,0,0,0,0,0,0,0,0,0,0,0,0],"id":57,"left_children":[1,3,5,7,9,11,13,15,17,19,21,-1,-1,-1,-1,-1,-1,-1,-1,-1,-1,-1,-1],"loss_changes":[1.170927E6,3.473818E6,4.814847E5,1.459085E6,2.04988E6,5.029643E4,2.208975E5,4.1071175E5,8.075284E5,1.142873E6,1.1444555E6,0E0,0E0,0E0,0E0,0E0,0E0,0E0,0E0,0E0,0E0,0E0,0E0],"parents":[2147483647,0,0,1,1,2,2,3,3,4,4,5,5,6,6,7,7,8,8,9,9,10,10],"right_children":[2,4,6,8,10,12,14,16,18,20,22,-1,-1,-1,-1,-1,-1,-1,-1,-1,-1,-1,-1],"split_conditions":[2.495E1,4.35E1,4.95E1,3.4E1,4.55E1,2.0185E3,2.013E3,2.0175E3,6.65E0,2.016E3,4.95E1,-8.550606E0,-1.9706738E0,-5.741838E0,9.724154E0,1.0762093E1,2.8242498E1,6.9951477E0,-8.280048E0,1.3597913E1,4.944478E1,2.0083805E1,-1.0015549E1],"split_indices":[4,3,3,3,3,1,1,1,4,1,3,0,0,0,0,0,0,0,0,0,0,0,0],"split_type":[0,0,0,0,0,0,0,0,0,0,0,0,0,0,0,0,0,0,0,0,0,0,0],"sum_hessian":[1.68E2,1.37E2,3.1E1,9.6E1,4.1E1,1.3E1,1.8E1,1.7E1,7.9E1,1.4E1,2.7E1,4E0,9E0,2E0,1.6E1,8E0,9E0,7E1,9E0,4E0,1E1,2.4E1,3E0],"tree_param":{"num_deleted":"0","num_feature":"7","num_nodes":"23","size_leaf_vector":"0"}},{"base_weights":[2.2014914E2,2.5786133E2,5.0635757E1,1.5574597E2,4.8755957E2,-8.551831E1,1.4829477E2,4.0252203E2,9.827453E1,7.7925385E2,3.1388196E2,-1.6417159E2,-3.7639843E1,-1.1100887E2,1.8533101E2,2.0567557E2,5.3943164E2,1.3300636E2,-1.5814891E2,2.6107993E2,9.439462E2,3.8239566E2,-1.9279926E2],"categories":[],"categories_nodes":[],"categories_segments":[],"categories_sizes":[],"default_left":[1,1,1,1,1,1,1,1,1,1,1,0,0,0,0,0,0,0,0,0,0,0,0],"id":58,"left_children":[1,3,5,7,9,11,13,15,17,19,21,-1,-1,-1,-1,-1,-1,-1,-1,-1,-1,-1,-1],"loss_changes":[1.0673115E6,3.160954E6,4.3817544E5,1.3361522E6,1.883159E6,4.654178E4,2.0304244E5,3.7415525E5,7.335192E5,1.033644E6,1.04573475E6,0E0,0E0,0E0,0E0,0E0,0E0,0E0,0E0,0E0,0E0,0E0,0E0],"parents":[2147483647,0,0,1,1,2,2,3,3,4,4,5,5,6,6,7,7,8,8,9,9,10,10],"right_children":[2,4,6,8,10,12,14,16,18,20,22,-1,-1,-1,-1,-1,-1,-1,-1,-1,-1,-1,-1],"split_conditions":[2.495E1,4.35E1,4.95E1,3.4E1,4.55E1,2.0185E3,2.013E3,2.0175E3,6.65E0,2.016E3,4.95E1,-8.208579E0,-1.8819922E0,-5.5504436E0,9.266551E0,1.0283778E1,2.6971582E1,6.650318E0,-7.9074454E0,1.3053996E1,4.719731E1,1.9119783E1,-9.639963E0],"split_indices":[4,3,3,3,3,1,1,1,4,1,3,0,0,0,0,0,0,0,0,0,0,0,0],"split_type":[0,0,0,0,0,0,0,0,0,0,0,0,0,0,0,0,0,0,0,0,0,0,0],"sum_hessian":[1.68E2,1.37E2,3.1E1,9.6E1,4.1E1,1.3E1,1.8E1,1.7E1,7.9E1,1.4E1,2.7E1,4E0,9E0,2E0,1.6E1,8E0,9E0,7E1,9E0,4E0,1E1,2.4E1,3E0],"tree_param":{"num_deleted":"0","num_feature":"7","num_nodes":"23","size_leaf_vector":"0"}},{"base_weights":[2.0972957E2,8.899899E1,2.611555E2,2.5525913E1,3.2325995E2,1.9356401E2,9.010396E2,-1.8778778E2,5.9427433E1,3.9603662E2,1.9660661E2,2.69946E2,8.063039E1,2.5890448E1,8.9836655E1,1.5071301E2,4.9072208E2,2.3884798E2,2.2417398E1],"categories":[],"categories_nodes":[],"categories_segments":[],"categories_sizes":[],"default_left":[1,1,1,1,1,1,0,0,1,0,0,1,1,0,0,0,0,0,0],"id":59,"left_children":[1,3,5,7,9,11,-1,-1,13,-1,-1,15,17,-1,-1,-1,-1,-1,-1],"loss_changes":[1.0260245E6,7.649502E5,4.9291755E6,3.148894E5,2.3528125E4,9.098525E5,0E0,0E0,3.540793E4,0E0,0E0,1.610765E6,4.0911003E5,0E0,0E0,0E0,0E0,0E0,0E0],"parents":[2147483647,0,0,1,1,2,2,3,3,4,4,5,5,8,8,11,11,12,12],"right_children":[2,4,6,8,10,12,-1,-1,14,-1,-1,16,18,-1,-1,-1,-1,-1,-1],"split_conditions":[9.5E0,3.1E1,2.95E1,3.95E1,2.0175E3,1.105E1,4.5051983E1,-9.389389E0,2.0185E3,1.9801832E1,9.830331E0,4.25E1,2.15E1,1.2945224E0,4.4918327E0,7.5356507E0,2.4536104E1,1.1942399E1,1.12087E0],"split_indices":[0,2,2,3,1,4,0,0,1,0,0,3,2,0,0,0,0,0,0],"split_type":[0,0,0,0,0,0,0,0,0,0,0,0,0,0,0,0,0,0,0],"sum_hessian":[1.68E2,5.1E1,1.17E2,4.1E1,1E1,1.07E2,1E1,5E0,3.6E1,5E0,5E0,6.3E1,4.4E1,1.8E1,1.8E1,4.2E1,2.1E1,1.1E1,3.3E1],"tree_param":{"num_deleted":"0","num_feature":"7","num_nodes":"19","size_leaf_vector":"0"}},{"base_weights":[1.9993077E2,8.504958E1,2.4886205E2,2.416384E1,3.0979065E2,1.8430374E2,8.6008344E2,-1.7996327E2,5.6612457E1,3.7953482E2,1.8841472E2,2.4017104E2,4.411357E1,2.4664076E1,8.558124E1,7.1663995E0,2.8738812E2,-8.300384E1,1.3545726E2],"categories":[],"categories_nodes":[],"categories_segments":[],"categories_sizes":[],"default_left":[1,1,1,1,1,1,0,0,1,0,0,1,1,0,0,0,0,0,0],"id":60,"left_children":[1,3,5,7,9,11,-1,-1,13,-1,-1,15,17,-1,-1,-1,-1,-1,-1],"loss_changes":[9.28831E5,7.040576E5,4.4976955E6,2.8838116E5,2.1608E4,8.3526575E5,0E0,0E0,3.213293E4,0E0,0E0,8.45079E5,3.828074E5,0E0,0E0,0E0,0E0,0E0,0E0],"parents":[2147483647,0,0,1,1,2,2,3,3,4,4,5,5,8,8,11,11,12,12],"right_children":[2,4,6,8,10,12,-1,-1,14,-1,-1,16,18,-1,-1,-1,-1,-1,-1],"split_conditions":[9.5E0,3.1E1,2.95E1,3.95E1,2.0175E3,2.495E1,4.3004173E1,-8.998164E0,2.0185E3,1.8976742E1,9.420736E0,2.0145E3,4.95E1,1.2332038E0,4.279062E0,3.5831997E-1,1.4369407E1,-4.150192E0,6.772863E0],"split_indices":[0,2,2,3,1,4,0,0,1,0,0,1,3,0,0,0,0,0,0],"split_type":[0,0,0,0,0,0,0,0,0,0,0,0,0,0,0,0,0,0,0],"sum_hessian":[1.68E2,5.1E1,1.17E2,4.1E1,1E1,1.07E2,1E1,5E0,3.6E1,5E0,5E0,7.6E1,3.1E1,1.8E1,1.8E1,1.3E1,6.3E1,1.3E1,1.8E1],"tree_param":{"num_deleted":"0","num_feature":"7","num_nodes":"19","size_leaf_vector":"0"}},{"base_weights":[1.9043874E2,1.1207111E2,2.5798288E2,3.326395E2,3.3004326E1,3.6162808E2,-2.5959785E1,4.1592728E2,1.75375E2,-3.6739402E0,3.6372104E2,9.230772E1,5.576455E2,1.3456808E2,-1.0941808E2,-8.969395E1,7.654034E1,6.639746E1,1.8056413E2,2.851934E2,8.150874E2,-1.9098889E2,-3.3219627E1],"categories":[],"categories_nodes":[],"categories_segments":[],"categories_sizes":[],"default_left":[1,1,1,1,1,1,1,0,0,1,0,1,1,0,1,0,0,0,0,0,0,0,0],"id":61,"left_children":[1,3,5,7,9,11,13,-1,-1,15,-1,17,19,-1,21,-1,-1,-1,-1,-1,-1,-1,-1],"loss_changes":[8.656505E5,1.3841922E6,2.6580245E6,2.02119E5,7.291432E5,3.432763E6,3.4965878E5,0E0,0E0,3.86367E5,0E0,5.432664E4,2.432885E6,0E0,9.932011E4,0E0,0E0,0E0,0E0,0E0,0E0,0E0,0E0],"parents":[2147483647,0,0,1,1,2,2,3,3,4,4,5,5,6,6,9,9,11,11,12,12,14,14],"right_children":[2,4,6,8,10,12,14,-1,-1,16,-1,18,20,-1,22,-1,-1,-1,-1,-1,-1,-1,-1],"split_conditions":[2.0175E3,2.25E1,6.65E0,4.85E1,3.1E1,9.5E0,2.0185E3,2.0796364E1,8.76875E0,2.75E1,1.8186052E1,3.15E1,4.2E1,6.7284045E0,2.021E3,-4.4846973E0,3.8270168E0,3.319873E0,9.028207E0,1.4259669E1,4.075437E1,-9.549445E0,-1.6609814E0],"split_indices":[1,2,4,3,2,0,1,0,0,2,0,2,3,0,1,0,0,0,0,0,0,0,0],"split_type":[0,0,0,0,0,0,0,0,0,0,0,0,0,0,0,0,0,0,0,0,0,0,0],"sum_hessian":[1.68E2,7.9E1,8.9E1,2E1,5.9E1,6.5E1,2.4E1,1.2E1,8E0,5.4E1,5E0,2.8E1,3.7E1,8E0,1.6E1,2.6E1,2.8E1,2.3E1,5E0,1.9E1,1.8E1,7E0,9E0],"tree_param":{"num_deleted":"0","num_feature":"7","num_nodes":"23","size_leaf_vector":"0"}},{"base_weights":[1.8156757E2,7.586631E1,2.2660907E2,1.9414492E1,2.845127E2,1.6774567E2,7.8394E2,-1.7565399E2,5.0522503E1,3.4856607E2,1.7304053E2,3.5864075E2,1.2814284E2,2.0003677E1,7.838225E1,1.810497E2,4.8260858E2,-3.9215977E1,1.9213051E2],"categories":[],"categories_nodes":[],"categories_segments":[],"categories_sizes":[],"default_left":[1,1,1,1,1,1,0,0,1,0,0,1,1,0,0,0,0,0,0],"id":62,"left_children":[1,3,5,7,9,11,-1,-1,13,-1,-1,15,17,-1,-1,-1,-1,-1,-1],"loss_changes":[7.874075E5,6.069566E5,3.7396525E6,2.6373856E5,1.8225812E4,7.70521E5,0E0,0E0,2.9891195E4,0E0,0E0,3.0890425E5,9.820446E5,0E0,0E0,0E0,0E0,0E0,0E0],"parents":[2147483647,0,0,1,1,2,2,3,3,4,4,5,5,8,8,11,11,12,12],"right_children":[2,4,6,8,10,12,-1,-1,14,-1,-1,16,18,-1,-1,-1,-1,-1,-1],"split_conditions":[9.5E0,3.1E1,2.95E1,3.95E1,2.0175E3,3.4E1,3.9197002E1,-8.7827E0,2.0185E3,1.7428305E1,8.652026E0,2.0175E3,4.25E1,1.0001839E0,3.9191124E0,9.052485E0,2.413043E1,-1.9607989E0,9.606525E0],"split_indices":[0,2,2,3,1,3,0,0,1,0,0,1,3,0,0,0,0,0,0],"split_type":[0,0,0,0,0,0,0,0,0,0,0,0,0,0,0,0,0,0,0],"sum_hessian":[1.68E2,5.1E1,1.17E2,4.1E1,1E1,1.07E2,1E1,5E0,3.6E1,5E0,5E0,1.7E1,9E1,1.8E1,1.8E1,8E0,9E0,2.5E1,6.5E1],"tree_param":{"num_deleted":"0","num_feature":"7","num_nodes":"19","size_leaf_vector":"0"}},{"base_weights":[1.7309421E2,2.0499397E2,3.0117218E1,1.21823555E2,3.9219724E2,8.108082E1,-1.6347862E2,3.425523E2,7.0636795E1,4.4439612E2,-2.1479114E2,1.4775337E2,-4.0370605E1,1.7300304E2,4.6089142E2,1.01913376E2,-1.5849057E2,2.7509235E2,7.270748E2],"categories":[],"categories_nodes":[],"categories_segments":[],"categories_sizes":[],"default_left":[1,1,1,1,1,1,0,1,1,1,0,0,0,0,0,0,0,0,0],"id":63,"left_children":[1,3,5,7,9,11,-1,13,15,17,-1,-1,-1,-1,-1,-1,-1,-1,-1],"loss_changes":[7.64624E5,2.1008495E6,3.2897788E5,1.071747E6,1.4261855E6,2.164993E5,0E0,2.81422E5,5.894579E5,1.6664715E6,0E0,0E0,0E0,0E0,0E0,0E0,0E0,0E0,0E0],"parents":[2147483647,0,0,1,1,2,2,3,3,4,4,5,5,7,7,8,8,9,9],"right_children":[2,4,6,8,10,12,-1,14,16,18,-1,-1,-1,-1,-1,-1,-1,-1,-1],"split_conditions":[2.495E1,4.35E1,2.25E1,3.4E1,4.95E1,2.02E3,-8.173931E0,2.0175E3,6.65E0,2.0185E3,-1.0739557E1,7.3876686E0,-2.0185304E0,8.650152E0,2.304457E1,5.095669E0,-7.9245286E0,1.3754618E1,3.635374E1],"split_indices":[4,3,2,3,3,1,0,1,4,1,0,0,0,0,0,0,0,0,0],"split_type":[0,0,0,0,0,0,0,0,0,0,0,0,0,0,0,0,0,0,0],"sum_hessian":[1.68E2,1.37E2,3.1E1,9.6E1,4.1E1,2.5E1,6E0,1.7E1,7.9E1,3.8E1,3E0,1.6E1,9E0,8E0,9E0,7E1,9E0,2.5E1,1.3E1],"tree_param":{"num_deleted":"0","num_feature":"7","num_nodes":"19","size_leaf_vector":"0"}},{"base_weights":[1.6482666E2,1.9523874E2,2.8523674E1,1.1602994E2,3.7352484E2,7.723324E1,-1.5647238E2,3.2718542E2,6.706957E1,4.2346127E2,-2.0673651E2,1.4080019E2,-3.8553905E1,1.6531403E2,4.4015118E2,-1.0798026E2,1.0583742E2,2.6186685E2,6.9331793E2],"categories":[],"categories_nodes":[],"categories_segments":[],"categories_sizes":[],"default_left":[1,1,1,1,1,1,0,1,1,1,0,0,0,0,0,0,0,0,0],"id":64,"left_children":[1,3,5,7,9,11,-1,13,15,17,-1,-1,-1,-1,-1,-1,-1,-1,-1],"loss_changes":[6.949795E5,1.905473E6,3.0043934E5,9.80866E5,1.3045445E6,1.9679455E5,0E0,2.5638338E5,5.543328E5,1.5191285E6,0E0,0E0,0E0,0E0,0E0,0E0,0E0,0E0,0E0],"parents":[2147483647,0,0,1,1,2,2,3,3,4,4,5,5,7,7,8,8,9,9],"right_children":[2,4,6,8,10,12,-1,14,16,18,-1,-1,-1,-1,-1,-1,-1,-1,-1],"split_conditions":[2.495E1,4.35E1,2.25E1,3.4E1,4.95E1,2.02E3,-7.8236194E0,2.0175E3,2.65E1,2.0185E3,-1.0336825E1,7.0400095E0,-1.9276953E0,8.265701E0,2.2007559E1,-5.399013E0,5.291871E0,1.3093343E1,3.4665897E1],"split_indices":[4,3,2,3,3,1,0,1,2,1,0,0,0,0,0,0,0,0,0],"split_type":[0,0,0,0,0,0,0,0,0,0,0,0,0,0,0,0,0,0,0],"sum_hessian":[1.68E2,1.37E2,3.1E1,9.6E1,4.1E1,2.5E1,6E0,1.7E1,7.9E1,3.8E1,3E0,1.6E1,9E0,8E0,9E0,1.4E1,6.5E1,2.5E1,1.3E1],"tree_param":{"num_deleted":"0","num_feature":"7","num_nodes":"19","size_leaf_vector":"0"}},{"base_weights":[1.569692E2,6.009659E1,1.9832858E2,5.4681234E0,2.6321466E2,1.4705185E2,6.837429E2,-1.7699138E2,3.4908363E1,3.2538608E2,1.5717415E2,1.9502846E2,2.7012787E1,3.1509335E0,6.4828514E1,1.0565485E2,2.992581E2,7.356824E1,-1.4976643E2],"categories":[],"categories_nodes":[],"categories_segments":[],"categories_sizes":[],"default_left":[1,1,1,1,1,1,0,0,1,0,0,1,1,0,0,0,0,0,0],"id":65,"left_children":[1,3,5,7,9,11,-1,-1,13,-1,-1,15,17,-1,-1,-1,-1,-1,-1],"loss_changes":[6.6519475E5,5.755542E5,2.8365285E6,2.3178783E5,2.1377312E4,6.1671075E5,0E0,0E0,3.4952645E4,0E0,0E0,6.85666E5,2.7437922E5,0E0,0E0,0E0,0E0,0E0,0E0],"parents":[2147483647,0,0,1,1,2,2,3,3,4,4,5,5,8,8,11,11,12,12],"right_children":[2,4,6,8,10,12,-1,-1,14,-1,-1,16,18,-1,-1,-1,-1,-1,-1],"split_conditions":[9.5E0,3.1E1,2.95E1,3.95E1,2.0175E3,2.495E1,3.4187145E1,-8.849569E0,2.0185E3,1.6269304E1,7.8587074E0,4.25E1,2.25E1,1.5754668E-1,3.2414258E0,5.2827425E0,1.4962905E1,3.678412E0,-7.488322E0],"split_indices":[0,2,2,3,1,4,0,0,1,0,0,3,2,0,0,0,0,0,0],"split_type":[0,0,0,0,0,0,0,0,0,0,0,0,0,0,0,0,0,0,0],"sum_hessian":[1.68E2,5.1E1,1.17E2,4.1E1,1E1,1.07E2,1E1,5E0,3.6E1,5E0,5E0,7.6E1,3.1E1,1.8E1,1.8E1,4.2E1,3.4E1,2.5E1,6E0],"tree_param":{"num_deleted":"0","num_feature":"7","num_nodes":"19","size_leaf_vector":"0"}},{"base_weights":[1.4953078E2,8.2959656E1,2.0704367E2,2.77477E2,1.3495931E1,2.965749E2,-3.7600487E1,3.4926874E2,1.4294705E2,-1.929478E1,3.1182812E2,7.0597946E1,4.6122635E2,1.03953804E2,-1.103292E2,1.5327094E2,-5.192875E1,4.7649555E1,1.5062517E2,2.3395552E2,6.761838E2,-1.8428757E2,-4.012959E1],"categories":[],"categories_nodes":[],"categories_segments":[],"categories_sizes":[],"default_left":[1,1,1,1,1,1,1,0,0,1,0,1,1,0,1,0,0,0,0,0,0,0,0],"id":66,"left_children":[1,3,5,7,9,11,13,-1,-1,15,-1,17,19,-1,21,-1,-1,-1,-1,-1,-1,-1,-1],"loss_changes":[6.298735E5,1.0772071E6,1.9824475E6,1.52894E5,5.929681E5,2.423129E6,2.688457E5,0E0,0E0,3.1769188E5,0E0,4.6081156E4,1.6982385E6,0E0,8.086603E4,0E0,0E0,0E0,0E0,0E0,0E0,0E0,0E0],"parents":[2147483647,0,0,1,1,2,2,3,3,4,4,5,5,6,6,9,9,11,11,12,12,14,14],"right_children":[2,4,6,8,10,12,14,-1,-1,16,-1,18,20,-1,22,-1,-1,-1,-1,-1,-1,-1,-1],"split_conditions":[2.0175E3,2.25E1,6.65E0,4.85E1,3.1E1,9.5E0,2.0185E3,1.7463438E1,7.1473527E0,3.5E1,1.5591407E1,3.15E1,4.2E1,5.1976905E0,2.021E3,7.663547E0,-2.5964375E0,2.3824778E0,7.5312586E0,1.1697776E1,3.380919E1,-9.214378E0,-2.0064795E0],"split_indices":[1,2,4,3,2,0,1,0,0,3,0,2,3,0,1,0,0,0,0,0,0,0,0],"split_type":[0,0,0,0,0,0,0,0,0,0,0,0,0,0,0,0,0,0,0,0,0,0,0],"sum_hessian":[1.68E2,7.9E1,8.9E1,2E1,5.9E1,6.5E1,2.4E1,1.2E1,8E0,5.4E1,5E0,2.8E1,3.7E1,8E0,1.6E1,8E0,4.6E1,2.3E1,5E0,1.9E1,1.8E1,7E0,9E0],"tree_param":{"num_deleted":"0","num_feature":"7","num_nodes":"23","size_leaf_vector":"0"}},{"base_weights":[1.4261438E2,7.937755E1,1.9724028E2,2.647751E2,1.3165454E1,2.8258575E2,-3.5961388E1,3.3314868E2,1.3659375E2,-9.614339E1,9.958231E1,6.740985E1,4.393625E2,9.933353E1,-1.05472725E2,9.039119E1,-2.5139713E2,3.281576E1,2.3620186E2,4.536629E1,1.4434912E2,5.8804956E2,1.4246683E2,-1.76225E2,-3.832363E1],"categories":[],"categories_nodes":[],"categories_segments":[],"categories_sizes":[],"default_left":[1,1,1,1,1,1,1,0,0,1,1,1,1,0,1,0,0,0,0,0,0,0,0,0,0],"id":67,"left_children":[1,3,5,7,9,11,13,-1,-1,15,17,19,21,-1,23,-1,-1,-1,-1,-1,-1,-1,-1,-1,-1],"loss_changes":[5.6813225E5,9.7855875E5,1.8014058E6,1.3854262E5,5.763418E5,2.1968645E6,2.4559025E5,0E0,0E0,8.0464925E5,3.023838E5,4.263586E4,1.593715E6,0E0,7.401259E4,0E0,0E0,0E0,0E0,0E0,0E0,0E0,0E0,0E0,0E0],"parents":[2147483647,0,0,1,1,2,2,3,3,4,4,5,5,6,6,9,9,10,10,11,11,12,12,14,14],"right_children":[2,4,6,8,10,12,14,-1,-1,16,18,20,22,-1,24,-1,-1,-1,-1,-1,-1,-1,-1,-1,-1],"split_conditions":[2.0175E3,2.25E1,6.65E0,4.85E1,2.75E1,9.5E0,2.0185E3,1.6657434E1,6.8296876E0,4.15E1,3E-1,3.15E1,2.0205E3,4.966676E0,2.021E3,4.5195594E0,-1.2569857E1,1.6407881E0,1.1810093E1,2.2683146E0,7.2174563E0,2.940248E1,7.1233416E0,-8.811251E0,-1.9161816E0],"split_indices":[1,2,4,3,2,0,1,0,0,3,4,2,1,0,1,0,0,0,0,0,0,0,0,0,0],"split_type":[0,0,0,0,0,0,0,0,0,0,0,0,0,0,0,0,0,0,0,0,0,0,0,0,0],"sum_hessian":[1.68E2,7.9E1,8.9E1,2E1,5.9E1,6.5E1,2.4E1,1.2E1,8E0,2.6E1,3.3E1,2.8E1,3.7E1,8E0,1.6E1,1.2E1,1.4E1,2.3E1,1E1,2.3E1,5E0,2.4E1,1.3E1,7E0,9E0],"tree_param":{"num_deleted":"0","num_feature":"7","num_nodes":"25","size_leaf_vector":"0"}},{"base_weights":[1.3589279E2,7.5769806E1,1.8782553E2,2.5265488E2,1.2597201E1,2.6915366E2,-3.439377E1,3.1777274E2,1.3052301E2,-1.8708681E1,2.9746826E2,6.436646E1,4.1835562E2,9.4918594E1,-1.0083009E2,-9.1634384E1,4.9832787E1,4.3192486E1,1.3833464E2,2.060499E2,6.1981665E2,-1.6851517E2,-3.6599022E1],"categories":[],"categories_nodes":[],"categories_segments":[],"categories_sizes":[],"default_left":[1,1,1,1,1,1,1,0,0,1,0,1,1,0,1,0,0,0,0,0,0,0,0],"id":68,"left_children":[1,3,5,7,9,11,13,-1,-1,15,-1,17,19,-1,21,-1,-1,-1,-1,-1,-1,-1,-1],"loss_changes":[5.1344575E5,8.907605E5,1.6357985E6,1.255355E5,5.406536E5,1.989679E6,2.243466E5,0E0,0E0,2.794803E5,0E0,3.944479E4,1.497597E6,0E0,6.773975E4,0E0,0E0,0E0,0E0,0E0,0E0,0E0,0E0],"parents":[2147483647,0,0,1,1,2,2,3,3,4,4,5,5,6,6,9,9,11,11,12,12,14,14],"right_children":[2,4,6,8,10,12,14,-1,-1,16,-1,18,20,-1,22,-1,-1,-1,-1,-1,-1,-1,-1],"split_conditions":[2.0175E3,2.25E1,6.65E0,4.85E1,3.1E1,9.5E0,2.0185E3,1.5888637E1,6.5261507E0,2.75E1,1.4873413E1,3.15E1,4.2E1,4.7459297E0,2.021E3,-4.5817194E0,2.4916394E0,2.1596243E0,6.9167323E0,1.0302495E1,3.0990833E1,-8.425758E0,-1.8299512E0],"split_indices":[1,2,4,3,2,0,1,0,0,2,0,2,3,0,1,0,0,0,0,0,0,0,0],"split_type":[0,0,0,0,0,0,0,0,0,0,0,0,0,0,0,0,0,0,0,0,0,0,0],"sum_hessian":[1.68E2,7.9E1,8.9E1,2E1,5.9E1,6.5E1,2.4E1,1.2E1,8E0,5.4E1,5E0,2.8E1,3.7E1,8E0,1.6E1,2.6E1,2.8E1,2.3E1,5E0,1.9E1,1.8E1,7E0,9E0],"tree_param":{"num_deleted":"0","num_feature":"7","num_nodes":"23","size_leaf_vector":"0"}},{"base_weights":[1.2957182E2,4.8541046E1,1.6418224E2,4.3498012E-1,2.2780592E2,1.21631836E2,5.670242E2,-1.7089671E2,2.8206741E1,2.8507358E2,1.3257063E2,2.7843912E2,8.92784E1,-3.7674752E-1,5.5305664E1,1.465141E2,3.6932773E2,-5.2939533E1,1.4395094E2],"categories":[],"categories_nodes":[],"categories_segments":[],"categories_sizes":[],"default_left":[1,1,1,1,1,1,0,0,1,0,0,1,1,0,0,0,0,0,0],"id":69,"left_children":[1,3,5,7,9,11,-1,-1,13,-1,-1,15,17,-1,-1,-1,-1,-1,-1],"loss_changes":[4.659925E5,4.4833475E5,1.9536798E6,2.0466411E5,2.2200562E4,5.2305288E5,0E0,0E0,2.868036E4,0E0,0E0,1.61717E5,7.1518356E5,0E0,0E0,0E0,0E0,0E0,0E0],"parents":[2147483647,0,0,1,1,2,2,3,3,4,4,5,5,8,8,11,11,12,12],"right_children":[2,4,6,8,10,12,-1,-1,14,-1,-1,16,18,-1,-1,-1,-1,-1,-1],"split_conditions":[9.5E0,3.1E1,2.95E1,3.95E1,2.0175E3,3.4E1,2.835121E1,-8.544836E0,2.0185E3,1.4253679E1,6.628532E0,2.0175E3,4.25E1,-1.8837376E-2,2.7652833E0,7.325705E0,1.8466387E1,-2.6469767E0,7.1975474E0],"split_indices":[0,2,2,3,1,3,0,0,1,0,0,1,3,0,0,0,0,0,0],"split_type":[0,0,0,0,0,0,0,0,0,0,0,0,0,0,0,0,0,0,0],"sum_hessian":[1.68E2,5.1E1,1.17E2,4.1E1,1E1,1.07E2,1E1,5E0,3.6E1,5E0,5E0,1.7E1,9E1,1.8E1,1.8E1,8E0,9E0,2.5E1,6.5E1],"tree_param":{"num_deleted":"0","num_feature":"7","num_nodes":"19","size_leaf_vector":"0"}},{"base_weights":[1.2352975E2,1.4779218E2,1.5037712E1,8.6204575E1,2.8651135E2,-7.618195E1,8.146075E1,2.6594998E2,4.46843E1,3.286292E2,-1.9576556E2,-1.304497E2,-4.1429882E1,-9.1961426E1,1.0727285E2,1.4000238E2,3.5270782E2,-1.1432565E2,8.014589E1,1.1500061E1,3.9764185E2],"categories":[],"categories_nodes":[],"categories_segments":[],"categories_sizes":[],"default_left":[1,1,1,1,1,1,1,1,1,1,0,0,0,0,0,0,0,0,0,0,0],"id":70,"left_children":[1,3,5,7,9,11,13,15,17,19,-1,-1,-1,-1,-1,-1,-1,-1,-1,-1,-1],"loss_changes":[4.42633E5,1.1542882E6,2.0009662E5,7.120348E5,9.17458E5,2.099832E4,9.491639E4,1.47305E5,4.6026244E5,8.489775E5,0E0,0E0,0E0,0E0,0E0,0E0,0E0,0E0,0E0,0E0,0E0],"parents":[2147483647,0,0,1,1,2,2,3,3,4,4,5,5,6,6,7,7,8,8,9,9],"right_children":[2,4,6,8,10,12,14,16,18,20,-1,-1,-1,-1,-1,-1,-1,-1,-1,-1,-1],"split_conditions":[2.495E1,4.35E1,4.95E1,3.4E1,4.95E1,2.0185E3,2.013E3,2.0175E3,2.65E1,9.5E0,-9.788279E0,-6.5224853E0,-2.071494E0,-4.5980716E0,5.3636427E0,7.000119E0,1.7635391E1,-5.716283E0,4.0072947E0,5.750031E-1,1.9882093E1],"split_indices":[4,3,3,3,3,1,1,1,2,0,0,0,0,0,0,0,0,0,0,0,0],"split_type":[0,0,0,0,0,0,0,0,0,0,0,0,0,0,0,0,0,0,0,0,0],"sum_hessian":[1.68E2,1.37E2,3.1E1,9.6E1,4.1E1,1.3E1,1.8E1,1.7E1,7.9E1,3.8E1,3E0,4E0,9E0,2E0,1.6E1,8E0,9E0,1.4E1,6.5E1,7E0,3.1E1],"tree_param":{"num_deleted":"0","num_feature":"7","num_nodes":"21","size_leaf_vector":"0"}},{"base_weights":[1.1750576E2,6.2541885E1,1.6505692E2,2.2083006E2,6.098656E0,2.3972386E2,-3.8666103E1,2.7810938E2,1.1355661E2,-2.2785751E1,2.6985596E2,5.4735966E1,3.7459033E2,7.953472E1,-9.896854E1,1.3378004E2,-5.228163E1,3.5212414E1,1.2370752E2,1.8176753E2,5.578464E2,-1.6085123E2,-3.956553E1],"categories":[],"categories_nodes":[],"categories_segments":[],"categories_sizes":[],"default_left":[1,1,1,1,1,1,1,0,0,1,0,1,1,0,1,0,0,0,0,0,0,0,0],"id":71,"left_children":[1,3,5,7,9,11,13,-1,-1,15,-1,17,19,-1,21,-1,-1,-1,-1,-1,-1,-1,-1],"loss_changes":[4.3137475E5,7.1339694E5,1.378293E6,9.745431E4,4.6325728E5,1.626108E6,1.8606638E5,0E0,0E0,2.6098677E5,0E0,3.4694492E4,1.2413675E6,0E0,5.612814E4,0E0,0E0,0E0,0E0,0E0,0E0,0E0,0E0],"parents":[2147483647,0,0,1,1,2,2,3,3,4,4,5,5,6,6,9,9,11,11,12,12,14,14],"right_children":[2,4,6,8,10,12,14,-1,-1,16,-1,18,20,-1,22,-1,-1,-1,-1,-1,-1,-1,-1],"split_conditions":[2.0175E3,2.25E1,6.65E0,4.85E1,3.1E1,9.5E0,2.0185E3,1.3905469E1,5.6778307E0,3.5E1,1.3492798E1,3.15E1,4.2E1,3.976736E0,2.021E3,6.6890025E0,-2.6140816E0,1.7606207E0,6.185376E0,9.088377E0,2.7892319E1,-8.042562E0,-1.9782765E0],"split_indices":[1,2,4,3,2,0,1,0,0,3,0,2,3,0,1,0,0,0,0,0,0,0,0],"split_type":[0,0,0,0,0,0,0,0,0,0,0,0,0,0,0,0,0,0,0,0,0,0,0],"sum_hessian":[1.68E2,7.9E1,8.9E1,2E1,5.9E1,6.5E1,2.4E1,1.2E1,8E0,5.4E1,5E0,2.8E1,3.7E1,8E0,1.6E1,8E0,4.6E1,2.3E1,5E0,1.9E1,1.8E1,7E0,9E0],"tree_param":{"num_deleted":"0","num_feature":"7","num_nodes":"23","size_leaf_vector":"0"}},{"base_weights":[1.1208036E2,5.987922E1,1.5723604E2,2.1072122E2,6.0865335E0,2.2841829E2,-3.697457E1,2.6527368E2,